tree
version=v2
num_class=1
num_tree_per_iteration=1
label_index=0
max_feature_idx=4
objective=regression_l1
feature_names=store item month day year
feature_infos=[1:10] [1:50] [1:12] [0:6] [2013:2017]
tree_sizes=2403 2032 2614 2614 2630 2045 1826 2626 1826 1907 2635 2304 2644 2560 2382 2649 2300 2537 2472 2127 2377 2433 2620 2628 2529 2390 2457 2632 2068 2653 2557 2645 2647 2631 2672 2392 2592 2398 2365 2618 2551 2390 2546 2628 2542 2632 2377 2586 2651 2312 2213 2557 2629 2617 2311 2654 2647 2689 2539 2630 2623 2680 2626 2623 2623 2625 2641 2671 2594 2674 2452 2627 2664 2469 2667 2644 2393 2639 2602 2697 2641 2637 2697 2681 2632 2676 2637 2631 2627 2709 2693 2645 2447 2638 2610 2650 2645 2630 2644 2663 2709 2634 2635 2677 2563 2649 2643 2679 2695 2628 2638 2652 2655 2701 2553 2646 2646 2659 2559 2637 2661 2664 2598 2672 2488 2572 2520 2656 2663 2649 2687 2643 2678 2704 2699 2679 2730 2646 2650 2655 2661 2722 2670 2566 2578 2668 2693 2662 2654 2665 2653 2637 2642 2670 2655 2676 2583 2490 2671 2667 2652 2676 2658 2669 2652 2565 2683 2589 2702 2660 2666 2666 2642 2668 2649 2672 2694 2684 2656 2661 2672 2663 2684 2686 2691 2718 2698 2685 2677 2607 2667 2716 2683 2684 2680 2689 2718 2431 2431 2669 2598 2582 2725 2703 2682 2677 2676 2660 2689 2716 2686 2705 2645 2664 2727 2698 2673 2657 2276 2702 2668 2715 2352 2489 2682 2728 2586 2668 2646 2667 2679 2538 2694 2675 2658 2669 2717 2710 2677 2691 2651 2682 2712 2666 2521 2707 2640 2347 2681 2730 2690 2696 2344 2564 2617 2679 2670 2675 2693 2676 2680 2673 2671 2696 2696 2677 2690 2656 2698 2682 2721 2674 2713 2693 2685 2673 2698 2712 2678 2693 2691 2695 2512 2673 2699 2657 2670 2683 2713 2680 2693 2674 2663 2728 2303 2691 2674 2692 2689 2694 2675 2590 2674 2671 2699 2682 2717 2676 2523 2676 2730 2685 2695 2663 2732 2668 2652 2730 2701 2675 2674 2661 2686 2683 2687 2666 2700 2676 2714 2692 2669 2590 2674 2605 2600 2690 2623 2607 2614 2731 2679 2709 2683 2676 2697 2648 2691 2678 2524 2692 2701 2617 2674 2699 2693 2681 2678 2726 2733 2681 2722 2739 2707 2733 2700 2739 2698 2682 2602 2669 2687 2686 2611 2681 2684 2663 2714 2654 2670 2680 2724 2750 2698 2695 2721 2737 2581 2737 2706 2696 2728 2602 2682 2644 2686 2684 2713 2726 2681 2768 2688 2674 2682 2686 2695 2715 2695 2728 2710 2721 2686 2688 2698 2688 2704 2671 2606 2675 2580 2692 2711 2706 2653 2682 2693 2689 2695 2711 2685 2695 2673 2693 2700 2707 2340 2705 2710 2697 2606 2698 2710 2713 2718 2709 2703 2702 2707 2661 2715 2622 2670 2726 2709 2703 2555 2692 2734 2739 2693 2705 2683 2612 2424 2626 2729 2714 2706 2681 2731 2735 2710 2691 2705 2662 2619 2713 2728 2724 2706 2734 2703 2694 2749 2612 2483 2694 2692 2691 2649 2685 2670 2652 2597 2626 2688 2622 2743 2709 2693 2697 2703 2642 2652 2580 2715 2712 2706 2654 2710 2617 2733 2699 2689 2707 2709 2697 2722 2694 2688 2703 2751 2682 2705 2706 2619 2716 2554 2568 2714 2441 2676 2708 2693 2723 2710 2708 2698 2712 2692 2733 2715 2718 2716 2705 2721 2704 2558 2717 2639 2673 2681 2696 2687 2734 2666 2637 2709 2661 2726 2448 2654 2674 2421 2713 2636 2700 2689 2688 2699 2747 2710 2611 2372 2721 2723 2661 2546 2711 2556 2741 2673 2617 2699 2722 2710 2693 2720 2688 2695 2626 2615 2707 2698 2705 2709 2716 2737 2646 2726 2732 2715 2732 2774 2730 2718 2679 2698 2670 2596 2696 2707 2422 2628 2504 2508 2749 2718 2729 2643 2714 2622 2735 2734 2703 2688 2709 2711 2711 2740 2714 2624 2727 2718 2705 2708 2682 2724 2701 2763 2630 2704 2688 2703 2716 2749 2705 2532 2615 2709 2704 2708 2699 2733 2732 2772 2643 2698 2695 2706 2705 2755 2555 2616 2672 2713 2598 2734 2691 2732 2761 2699 2731 2703 2753 2688 2735 2705 2726 2659 2760 2719 2715 2671 2721 2702 2685 2739 2754 2726 2766 2700 2702 2401 2716 2754 2696 2720 2720 2720 2735 2734 2736 2669 2673 2726 2653 2718 2724 2728 2742 2703 2734 2742 2727 2682 2691 2706 2692 2671 2705 2703 2660 2736 2780 2709 2714 2760 2716 2775 2707 2610 2634 2731 2744 2721 2723 2710 2697 2726 2681 2701 2719 2723 2729 2727 2735 2774 2717 2745 2678 2666 2746 2752 2707 2696 2782 2711 2694 2734 2722 2711 2735 2752 2714 2715 2704 2754 2745 2756 2722 2702 2709 2717 2723 2734 2738 2720 2752 2677 2611 2702 2626 2716 2708 2720 2713 2720 2541 2765 2356 2735 2727 2729 2709 2715 2669 2724 2715 2749 2735 2719 2748 2758 2711 2724 2719 2639 2706 2784 2707 2743 2711 2633 2689 2721 2386 2709 2722 2751 2728 2740 2714 2721 2734 2725 2708 2735 2740 2705 2699 2611 2473 2733 2636 2710 2665 2599 2686 2720 2716 2716 2743 2454 2750 2714 2711 2737 2672 2703 2763 2711 2711 2701 2742 2726 2738 2728 2712 2765 2751 2548 2734 2661 2456 2445 2717 2732 2726 2704 2725 2757 2627 2609 2569 2754 2737 2745 2721 2727 2586 2746 2772 2703 2698 2717 2729 2717 2633 2746 2717 2723 2726 2695 2602 2750 2707 2712 2712 2722 2730 2631 2709 2689 2721 2712 2680 2707 2648 2687 2657 2717 2735 2718 2730 2722 2711 2739 2755 2642 2728 2721 2732 2650 2734 2710 2677 2627 2751 2554 2735 2715 2765 2714 2721 2704 2720 2741 2727 2750 2671 2698 2728 2631 2751 2744 2748 2743 2707 2664 2757 2713 2762 2765 2472 2634 2724 2734 2736 2767 2732 2708 2648 2717 2708 2733 2762 2750 2725 2719 2740 2674 2606 2604 2752 2617 2728 2707 2626 2742 2779 2718 2723 2681 2733 2651 2692 2689 2598 2672 2666 2649 2724 2702 2644 2708 2645 2710 2712 2627 2719 2722 2713 2708 2723 2749 2690 2718 2774 2568 2736 2769 2710 2407 2412 2740 2742 2718 2749 2763 2604 2721 2740 2720 2727 2647 2778 2671 2719 2731 2703 2722 2686 2713 2714 2716 2629 2709 2728 2722 2751 2729 2764 2709 2534 2719 2710 2694 2724 2700 2725 2702 2722 2725 2742 2734 2722 2750 2742 2726 2036 2704 2719 2702 2724 2641 2766 2746 2733 2726 2614 2638 2715 2726 2742 2619 2733 2750 2573 2754 2661 2742 2735 2729 2751 2734 2707 2747 2671 2389 2764 2734 2715 2735 2707 2740 2352 2763 2748 2744 2751 2747 2745 2682 2749 2699 2544 2708 2736 2763 2611 2745 2731 2489 2745 2751 2733 2654 2736 2741 2693 2740 2738 2675 2717 2747 2737 2740 2657 2763 2736 2701 2730 2758 2733 2727 2743 2643 2739 2629 2745 2706 2738 2665 2732 2758 2718 2767 2747 2728 2738 2743 2723 2774 2730 2757 2739 2743 2721 2655 2752 2726 2759 2726 2726 2756 2663 2734 2771 2742 2776 2755 2748 2772 2612 2615 2727 2745 2741 2659 2638 2483 2583 2611 2492 2758 2742 2744 2741 2673 2534 2760 2742 2750 2739 2694 2720 2726 2734 2752 2729 2745 2783 2763 2780 2715 2724 2723 2729 2736 2745 2647 2740 2755 2774 2715 2730 2736 2659 2728 2748 2576 2641 2736 2772 2659 2732 2759 2763 2665 2752 2671 2674 2697 2702 2740 2720 2736 2151 2306 2664 2561 2772 2776 2763 2551 2641 2724 2740 2659 2643 2652 2764 2734 2756 2743 2688 2691 2685 2740 2741 2700 2707 2594 2720 2622 2715 2733 2726 2736 2733 2765 2698 2631 2761 2633 2748 2494 2781 2731 2661 2638 2742 2768 2715 2719 2746 2750 2688 2718 2738

Tree=0
num_leaves=32
num_cat=0
split_feature=2 2 3 0 0 0 0 3 3 0 0 0 0 4 0 4 0 0 0 0 0 4 4 3 4 4 4 4 4 0 2
split_gain=19889.5 10055.3 7184.9 3267.88 9316.09 3090.98 8614.56 2102.66 1263.51 901.869 2570.51 820.906 2133.85 608.559 593.735 581.194 574.511 1417.28 464.592 1277.88 364.239 358.937 223.507 187.072 174.078 165.063 87.3272 54.8969 48.3184 31.6721 17.3838
threshold=2.5000000000000004 11.500000000000002 2.5000000000000004 7.5000000000000009 4.5000000000000009 7.5000000000000009 4.5000000000000009 3.5000000000000004 3.5000000000000004 7.5000000000000009 4.5000000000000009 7.5000000000000009 4.5000000000000009 2013.5000000000002 1.5000000000000002 2013.5000000000002 7.5000000000000009 4.5000000000000009 7.5000000000000009 4.5000000000000009 1.5000000000000002 2013.5000000000002 2013.5000000000002 1.0000000180025095e-35 2015.5000000000002 2013.5000000000002 2014.5000000000002 2015.5000000000002 2015.5000000000002 8.5000000000000018 1.5000000000000002
decision_type=2 2 2 2 2 2 2 2 2 2 2 2 2 2 2 2 2 2 2 2 2 2 2 2 2 2 2 2 2 2 2
left_child=7 2 3 4 -2 6 -4 11 16 10 20 12 14 -5 -1 -7 17 -3 19 -10 -9 29 30 -23 -12 -18 -20 -24 -14 -13 -11
right_child=1 8 5 13 -6 15 -8 9 18 22 24 21 28 -15 -16 -17 25 -19 26 -21 -22 23 27 -25 -26 -27 -28 -29 -30 -31 -32
leaf_value=43.399999999999999 48 45 50.399999999999999 46.799999999999997 44.799999999999997 49 46.399999999999999 45 47 45 43.200000000000003 44.399999999999999 42 49 45.200000000000003 51.799999999999997 44.200000000000003 42.600000000000001 46.399999999999999 44 47 44.600000000000001 46.799999999999997 45.799999999999997 44.200000000000003 45.799999999999997 48.200000000000003 48 43 43.600000000000001 45.799999999999997
leaf_count=5398 75394 11462 100205 11315 56551 15199 75400 4003 8427 1178 7207 1108 9849 45444 16059 60403 1693 8584 2408 6370 12272 3302 4884 9509 5043 6798 4018 4968 6486 2253 1130
internal_value=0 0.079567 0.127768 -0.0196702 -0.105996 0.238533 0.165715 -0.421184 -0.346481 -0.249359 -0.346569 -0.55065 -0.631457 0.180947 -0.423762 0.407618 -0.48395 -0.576434 -0.161449 -0.258981 -0.0858771 -0.361541 -0.0210395 -0.284682 -0.69256 -0.265118 0.06267 0.0443333 -0.903963 -0.653073 -0.301133
internal_count=584320 489671 439911 188704 131945 251207 175605 94649 49760 40685 28525 53964 37792 56759 21457 75602 28537 20046 21223 14797 16275 16172 12160 12811 12250 8491 6426 9852 16335 3361 2308
shrinkage=1


Tree=1
num_leaves=25
num_cat=0
split_feature=1 1 1 1 1 1 1 1 1 1 1 3 1 4 3 0 0 4 3 4 1 3 3 4
split_gain=27126.2 42917 16129 15908.3 13627.4 7374.74 4788.91 11143.2 2643.61 1774.56 1407.83 1023.66 869.813 677.017 582.973 452.644 1147.41 349.255 266.945 168.219 158.753 143.47 113.13 69.9921
threshold=5.5000000000000009 15.500000000000002 17.500000000000004 38.500000000000007 44.500000000000007 18.500000000000004 2.5000000000000004 1.5000000000000002 9.5000000000000018 8.5000000000000018 7.5000000000000009 1.0000000180025095e-35 3.5000000000000004 2013.5000000000002 3.5000000000000004 7.5000000000000009 4.5000000000000009 2013.5000000000002 3.5000000000000004 2015.5000000000002 16.500000000000004 4.5000000000000009 1.0000000180025095e-35 2015.5000000000002
decision_type=2 2 2 2 2 2 2 2 2 2 2 2 2 2 2 2 2 2 2 2 2 2 2 2
left_child=6 8 20 5 -5 -4 7 -1 9 10 -2 17 18 -13 -11 16 -9 -10 23 -20 -3 -22 -17 -8
right_child=1 2 3 4 -6 -7 12 15 11 14 -12 13 -14 -15 -16 22 -18 -19 19 -21 21 -23 -24 -25
leaf_value=-5.2800000000000002 1.7200000000000004 -4.6000000000000005 6.6400000000000006 -3 0.04000000000000057 0.52000000000000035 -3.4000000000000004 2.7200000000000006 0.24000000000000057 -0.40000000000000002 5.3200000000000003 2.8000000000000003 -5.6400000000000006 5.6400000000000006 1.4400000000000006 0.80000000000000004 -0.47999999999999976 2.4000000000000004 -2.2799999999999998 -0.95999999999999952 -3.48 -2.2799999999999998 3.6400000000000006 -2.2799999999999998
leaf_count=11591 23209 11713 11786 70017 69902 234111 3980 4633 2042 6737 11671 12045 23433 48110 4934 511 3530 7975 2974 2042 8311 3360 3020 2683
internal_value=0 0.0654178 -0.0871448 -0.038256 -0.307449 0.114908 -0.652961 -0.301053 0.600277 0.415301 0.52825 0.72292 -0.886201 0.772282 0.077429 0.387443 0.257276 0.42604 -0.662124 -0.48574 -0.893528 -0.808715 0.687023 -0.794171
internal_count=584320 525923 409200 385816 139919 245897 58397 23285 116723 46551 34880 70172 35112 60155 11671 11694 8163 10017 11679 5016 23384 11671 3531 6663
shrinkage=0.2


Tree=2
num_leaves=32
num_cat=0
split_feature=2 2 3 4 3 4 0 0 4 3 0 0 0 0 0 0 0 0 0 0 0 2 0 0 2 2 2 4 3 4 4
split_gain=16998.5 9476.09 5244.77 3104.48 2529.49 1668.25 1643.47 1349.1 1252.82 1050.45 956.465 2950.39 834.29 781.863 2556.83 613.295 526.618 1458.46 491.989 390.048 929.182 373.237 357.691 882.895 242.445 211.165 167.774 132.967 103.935 93.4098 84.051
threshold=3.5000000000000004 11.500000000000002 3.5000000000000004 2014.5000000000002 3.5000000000000004 2014.5000000000002 7.5000000000000009 4.5000000000000009 2014.5000000000002 2.5000000000000004 7.5000000000000009 4.5000000000000009 7.5000000000000009 7.5000000000000009 4.5000000000000009 7.5000000000000009 7.5000000000000009 4.5000000000000009 1.5000000000000002 7.5000000000000009 4.5000000000000009 2.5000000000000004 7.5000000000000009 4.5000000000000009 1.5000000000000002 1.5000000000000002 2.5000000000000004 2013.5000000000002 1.0000000180025095e-35 2015.5000000000002 2014.5000000000002
decision_type=2 2 2 2 2 2 2 2 2 2 2 2 2 2 2 2 2 2 2 2 2 2 2 2 2 2 2 2 2 2 2
left_child=4 2 3 6 8 12 -2 -5 19 22 11 18 -4 14 -10 -7 17 -11 -6 20 -1 -13 23 -3 -15 30 -21 -27 -24 -18 -12
right_child=1 9 5 7 10 15 -8 -9 13 16 25 21 -14 24 -16 -17 29 -19 -20 26 -22 -23 28 -25 -26 27 -28 -29 -30 -31 -32
leaf_value=-2.3840000000000003 -1.1840000000000004 -1.9040000000000008 0.4159999999999997 2 -1.4079999999999999 2.4159999999999999 0.63200000000000078 0.29600000000000082 -1.0480000000000005 -0.34399999999999981 -1.2640000000000002 -2.8400000000000007 2.7920000000000003 -1.6000000000000001 -3.1440000000000001 4.9120000000000008 -0.56799999999999928 -2.7040000000000006 0.39200000000000018 -2.3439999999999999 -3.9599999999999995 -1.8239999999999996 -2.3600000000000008 -3.6400000000000006 -0.30400000000000066 -0.65599999999999958 -1.4079999999999999 1.1359999999999999 -1.0879999999999996 0.86399999999999944 -0.20799999999999985
leaf_count=12975 62541 8635 46709 53357 6151 70313 26823 80392 19744 11254 2435 12250 20170 4852 14998 30189 4805 8518 18604 6644 9776 6354 2108 6436 9974 2559 3162 9568 4279 3725 4020
internal_value=0 0.0757124 0.12809 0.0276937 -0.320013 0.261894 -0.116597 0.124125 -0.435113 -0.335247 -0.167343 -0.248695 0.139423 -0.334831 -0.416921 0.343355 -0.208511 -0.2981 -0.0224131 -0.587651 -0.659793 -0.549574 -0.50221 -0.586502 -0.142215 0.0223246 -0.419811 0.10024 -0.302648 -0.000457315 -0.123554
internal_count=584320 440254 390494 223113 144066 167381 89364 133749 82125 49760 61941 43359 66879 49568 34742 100502 28302 19772 24755 32557 22751 18604 21458 15071 14826 18582 9806 12127 6387 8530 6455
shrinkage=0.2


Tree=3
num_leaves=32
num_cat=0
split_feature=2 2 3 4 0 3 0 4 0 0 4 0 0 0 0 0 0 0 3 0 4 0 0 4 3 0 0 0 4 3 0
split_gain=12379.7 5635.34 4606.65 3586.32 2600.42 1524.92 1127.99 915.716 863.826 2470.5 775.918 535.083 1600.22 510.139 1237.06 458.415 1054.99 365.392 274.014 271.469 205.877 205.842 291.277 184.811 149.396 136.125 90.9112 74.6052 46.6688 45.2519 24.4521
threshold=2.5000000000000004 11.500000000000002 1.0000000180025095e-35 2013.5000000000002 4.5000000000000009 2.5000000000000004 7.5000000000000009 2015.5000000000002 7.5000000000000009 4.5000000000000009 2013.5000000000002 4.5000000000000009 7.5000000000000009 7.5000000000000009 4.5000000000000009 7.5000000000000009 4.5000000000000009 1.5000000000000002 3.5000000000000004 1.5000000000000002 2014.5000000000002 7.5000000000000009 4.5000000000000009 2015.5000000000002 2.5000000000000004 4.5000000000000009 4.5000000000000009 8.5000000000000018 2015.5000000000002 1.0000000180025095e-35 8.5000000000000018
decision_type=2 2 2 2 2 2 2 2 2 2 2 2 2 2 2 2 2 2 2 2 2 2 2 2 2 2 2 2 2 2 2
left_child=5 2 8 6 -5 13 -4 15 9 -2 21 19 -13 14 17 16 -3 -1 25 -12 -10 22 -7 27 -17 -9 -20 -15 -16 -25 -23
right_child=1 7 3 4 -6 10 -8 18 20 -11 11 12 -14 23 28 24 -18 -19 26 -21 -22 30 -24 29 -26 -27 -28 -29 -30 -31 -32
leaf_value=-2.7983999999999996 -0.30400000000000066 -1.4271999999999991 -0.90720000000000034 2.472 0.67680000000000007 -2.0224000000000006 0.79360000000000075 -0.5232 -0.79039999999999966 -2.3712000000000004 -1.2224000000000004 -2.1760000000000006 -0.15840000000000032 -1.3552000000000008 -3.3519999999999999 -1.6663999999999994 -2.8960000000000008 -1.483200000000001 1.0608000000000004 0.1215999999999994 0.6528000000000006 -0.75519999999999932 -3.1120000000000005 -1.5632000000000006 -0.45439999999999969 -1.4960000000000009 -0.38719999999999999 -2.1951999999999998 -2.8512000000000004 -0.50719999999999887 -1.5552000000000008
leaf_count=4024 25238 12012 52643 120360 181063 4283 22788 4187 7487 18870 4331 13237 13082 2384 7277 4129 8899 11951 3690 13143 11462 1081 3140 1732 4805 6335 5703 4827 4931 3144 2082
internal_value=0 0.0413334 0.0774195 0.119284 0.168087 -0.353726 -0.0756941 -0.277614 -0.172723 -0.249437 -0.244362 -0.185494 -0.275584 -0.501302 -0.575177 -0.388466 -0.469586 -0.391534 -0.111302 -0.0496026 0.00569346 -0.48748 -0.578903 -0.328695 -0.198155 -0.22213 0.0125482 -0.43068 -0.81508 -0.177067 -0.27161
internal_count=584320 489671 439911 376854 301423 94649 75431 49760 63057 44108 54379 43793 26319 40270 28183 29845 20911 15975 19915 17474 18949 10586 7423 12087 8934 10522 9393 7211 12208 4876 3163
shrinkage=0.2


Tree=4
num_leaves=32
num_cat=0
split_feature=2 2 0 0 0 0 0 4 0 3 4 3 3 0 0 4 4 2 2 2 0 0 3 2 0 3 2 0 0 0 0
split_gain=9118.2 5126.71 2146.94 5551.74 2030.03 5533.94 2018.91 1629.95 1559.83 1018.35 857.313 825.802 665.193 656.919 1531.7 519.342 439.62 356.076 288.648 275.617 263.234 565.555 242.311 186.661 172.704 166.916 151.798 135.859 108.771 106.818 47.1392
threshold=3.5000000000000004 8.5000000000000018 7.5000000000000009 4.5000000000000009 7.5000000000000009 4.5000000000000009 1.5000000000000002 2015.5000000000002 1.5000000000000002 4.5000000000000009 2015.5000000000002 3.5000000000000004 2.5000000000000004 7.5000000000000009 4.5000000000000009 2015.5000000000002 2015.5000000000002 11.500000000000002 1.5000000000000002 1.5000000000000002 7.5000000000000009 4.5000000000000009 1.0000000180025095e-35 1.5000000000000002 4.5000000000000009 1.0000000180025095e-35 11.500000000000002 4.5000000000000009 7.5000000000000009 3.5000000000000004 8.5000000000000018
decision_type=2 2 2 2 2 2 2 2 2 2 2 2 2 2 2 2 2 2 2 2 2 2 2 2 2 2 2 2 2 2 2
left_child=7 4 3 6 5 8 -3 9 -2 13 -7 -5 18 14 -1 17 22 -4 28 29 21 -11 -6 -15 -21 -18 -17 -20 -9 -14 -22
right_child=1 2 15 11 16 10 -8 12 -10 20 -12 -13 19 23 -16 26 25 -19 27 24 30 -23 -24 -25 -26 -27 -28 -29 -30 -31 -32
leaf_value=-1.4739200000000012 0.16159999999999997 -1.3817599999999992 0.50495999999999985 -2.0825599999999995 0.27168000000000064 -1.0889599999999988 0.95679999999999987 -1.9078400000000002 2.9616000000000002 -0.38783999999999996 0.11744000000000057 -1.2025599999999999 0.079679999999999751 -1.62016 -2.5417599999999996 2.3062399999999998 1.7062399999999998 -0.83552000000000115 -0.23776000000000011 1.1692799999999992 0.71504000000000123 -1.7935999999999994 2.2748800000000005 -0.91616000000000075 -0.14080000000000012 4.4182399999999999 0.41760000000000164 -1.1785600000000003 -1.0425600000000004 -1.030720000000001 -0.33152000000000048
leaf_count=24382 24481 19581 26277 33558 6256 44012 58297 5795 73387 9985 29429 25113 3457 6489 18493 17446 4227 8934 6612 8584 2491 7483 38050 11995 12751 25223 5983 10052 2479 8086 4932
internal_value=0 0.0508814 -0.0700229 -0.13876 0.147191 0.0874423 0.0362207 -0.238947 0.243146 -0.326051 -0.120009 -0.371066 -0.108942 -0.395292 -0.463313 0.0899836 0.285917 0.013117 -0.232104 -0.0154163 -0.155215 -0.222249 0.222774 -0.237297 0.051828 0.380774 0.205356 -0.155931 -0.385033 -0.139954 0.00214144
internal_count=584320 440254 195189 136549 245065 171309 77878 144066 97868 86250 73441 58671 57816 61359 42875 58640 73756 35211 24938 32878 24891 17468 44306 18484 21335 29450 23429 16664 8274 11543 7423
shrinkage=0.2


Tree=5
num_leaves=25
num_cat=0
split_feature=1 1 1 1 1 1 1 1 2 1 1 1 2 2 0 1 4 2 2 4 1 0 0 0
split_gain=27811.7 38476 17503.4 13062.1 14003.7 8495.3 5031.83 10929 3085.54 1809.1 1370.2 856.865 741.719 609.847 578.358 534.701 323.604 123.418 172.989 121.937 65.3957 49.4399 9.6216 5.36643
threshold=5.5000000000000009 15.500000000000002 17.500000000000004 38.500000000000007 44.500000000000007 37.500000000000007 2.5000000000000004 1.5000000000000002 2.5000000000000004 9.5000000000000018 8.5000000000000018 14.500000000000002 11.500000000000002 3.5000000000000004 7.5000000000000009 3.5000000000000004 2013.5000000000002 4.5000000000000009 7.5000000000000009 2013.5000000000002 16.500000000000004 3.5000000000000004 7.5000000000000009 3.5000000000000004
decision_type=2 2 2 2 2 2 2 2 2 2 2 2 2 2 2 2 2 2 2 2 2 2 2 2
left_child=6 8 20 5 -5 -4 7 -1 11 10 -10 14 -11 19 -2 17 -15 23 -19 -9 -3 -22 -13 -8
right_child=1 2 3 4 -6 -7 15 13 9 12 -12 22 -14 16 -16 -17 -18 18 -20 -21 21 -23 -24 -25
leaf_value=-4.2820479999999987 -0.0060800000000000411 -3.7562879999999996 0.39008000000000043 -2.4907519999999992 0.21395200000000048 5.640191999999999 -2.2386559999999998 -0.88921600000000045 2.4070400000000007 4.3499520000000009 0.39001599999999997 2.5566400000000002 1.432512 0.28288000000000152 1.1058559999999993 -4.5627519999999988 2.0379520000000002 -1.2579199999999986 -2.1998080000000004 0.13075199999999826 -2.2780799999999988 -2.7532159999999992 4.7027360000000007 -2.5748480000000002
leaf_count=11662 11892 11658 233771 70019 70135 11673 1149 568 29438 52724 9627 1335 6032 1768 5053 23488 7106 2972 4974 2297 3516 8270 571 2622
internal_value=0 0.0537379 -0.0907404 -0.0397222 -0.283289 0.099349 -0.672507 -0.312849 0.560282 0.631685 0.464624 0.189557 0.742677 0.368074 0.117767 -0.911439 0.49757 -0.73549 -0.662591 -0.0320446 -0.929626 -0.873607 0.82501 -0.887639
internal_count=584320 525714 409042 385598 140154 245444 58606 23401 116672 97821 39065 18851 58756 11739 16945 35205 8874 11717 7946 2865 23444 11786 1906 3771
shrinkage=0.2


Tree=6
num_leaves=22
num_cat=0
split_feature=1 1 1 1 1 1 1 1 1 0 0 1 0 3 3 4 1 3 1 0 3
split_gain=26129 27208.1 15738.7 9458.4 16220.7 7272.6 4195.44 5161.71 5233.29 2670.9 7250.86 1849.35 1727.65 548.118 487.008 343.798 264.708 169.25 154.16 84.7703 1.79788
threshold=5.5000000000000009 15.500000000000002 17.500000000000004 39.500000000000007 42.500000000000007 18.500000000000004 3.5000000000000004 1.5000000000000002 2.5000000000000004 7.5000000000000009 4.5000000000000009 14.500000000000002 1.5000000000000002 1.0000000180025095e-35 1.0000000180025095e-35 2013.5000000000002 9.5000000000000018 4.5000000000000009 16.500000000000004 3.5000000000000004 5.5000000000000009
decision_type=2 2 2 2 2 2 2 2 2 2 2 2 2 2 2 2 2 2 2 2 2
left_child=6 9 18 5 -5 -4 7 -1 14 10 12 -12 -2 16 -9 -15 -11 -10 20 -20 -3
right_child=1 2 3 4 -6 -7 -8 8 17 13 11 -13 -14 15 -16 -17 -18 -19 19 -21 -22
leaf_value=-3.4256384 0.98335999999999901 -3.0597504000000004 5.0672640000000007 -2.9653375999999998 -0.24796159999999789 0.24857599999999991 -3.6502015999999999 -0.44003839999999883 -1.8345984000000002 0.32358399999999965 -0.1621760000000009 2.5214016000000008 3.7520895999999997 1.9257216000000001 1.1862016000000011 4.1462015999999995 2.3006048000000008 -1.2579583999999997 -1.8224639999999994 -2.2025727999999987 -2.5867903999999999
leaf_count=11662 11746 9996 11607 35022 93297 245672 23488 1710 8376 2007 31520 3491 35001 6044 10029 23845 3018 3341 3516 8270 1662
internal_value=0 0.036645 -0.0848486 -0.0364701 -0.25824 0.0741284 -0.667286 -0.448248 -0.177711 0.462609 0.363632 0.019418 0.621346 0.694245 0.29398 0.745749 0.387017 -0.650506 -0.880324 -0.797433 -0.963635
internal_count=584320 525714 409042 385598 128319 257279 58606 35118 23456 116672 81758 35011 46747 34914 11739 29889 5025 11717 23444 11786 11658
shrinkage=0.2


Tree=7
num_leaves=32
num_cat=0
split_feature=2 2 3 3 0 0 4 4 3 4 0 3 4 4 2 0 2 3 0 2 0 0 0 3 0 2 2 0 0 0 0
split_gain=7125.69 4850.45 3035.28 1774.27 1648.85 3086.12 1510.8 1354 949.01 814.05 720.956 641.06 472.4 453.606 452.045 405.277 379.25 371.913 328.355 321.578 272.636 260.799 221.659 219.762 146.418 134.631 122.017 87.8717 86.5214 54.2868 54.224
threshold=3.5000000000000004 9.5000000000000018 3.5000000000000004 4.5000000000000009 7.5000000000000009 4.5000000000000009 2015.5000000000002 2015.5000000000002 2.5000000000000004 2015.5000000000002 7.5000000000000009 4.5000000000000009 2014.5000000000002 2013.5000000000002 1.5000000000000002 3.5000000000000004 11.500000000000002 1.0000000180025095e-35 4.5000000000000009 1.5000000000000002 4.5000000000000009 3.5000000000000004 4.5000000000000009 1.0000000180025095e-35 7.5000000000000009 1.5000000000000002 11.500000000000002 7.5000000000000009 7.5000000000000009 3.5000000000000004 7.5000000000000009
decision_type=2 2 2 2 2 2 2 2 2 2 2 2 2 2 2 2 2 2 2 2 2 2 2 2 2 2 2 2 2 2 2
left_child=6 2 4 7 5 -2 8 10 19 15 -3 17 -6 26 24 -4 -9 27 -11 28 -19 -16 -15 -21 -10 29 -5 -8 -1 -13 -27
right_child=1 3 9 13 12 -7 11 16 14 18 -12 25 -14 22 21 -17 -18 20 -20 23 -22 -23 -24 -25 -26 30 -28 -29 -30 -31 -32
leaf_value=-2.0011852800000001 0.5232 -1.5250880000000002 2.0412979200000012 -0.44984319999999944 0.22215680000000193 -1.0884991999999998 -1.5908300799999993 0.0398208000000011 -1.5587968000000005 3.7985152000000015 -0.62014719999999957 0.38814207999999867 1.7241727999999996 1.3752140800000008 -0.10914944000000021 0.60430080000000153 -0.84938239999999898 -0.097774080000000652 1.8068608000000013 -1.8009779199999998 -0.84020479999999942 -0.9571302400000008 0.17639680000000058 -1.1598387200000033 -0.91660671999999865 0.47048191999999961 -1.3914879999999998 -0.96189952000000012 -1.522539519999998 -0.55230719999999989 1.6161753599999991
leaf_count=8685 67086 44131 22526 5450 20078 50192 5863 27767 12042 20305 19062 1808 30044 13583 9811 52404 13792 13328 30381 8324 19926 22718 20498 15669 5288 7127 2862 2523 3701 4283 3063
internal_value=0 0.0183111 0.092707 -0.129814 0.00452144 -0.0603414 -0.237843 -0.199675 -0.32176 0.210198 -0.291884 -0.112836 0.156347 0.0427376 -0.231999 0.143901 -0.0593789 -0.178635 0.308132 -0.444668 -0.131007 -0.162299 0.093883 -0.376643 -0.362599 0.0552631 -0.166556 -0.367019 -0.57607 -0.0620127 0.125666
internal_count=584320 440161 293016 147145 167400 117278 144159 104752 86238 125616 63193 57921 50122 42393 49859 74930 41559 41640 50686 36379 33254 32529 34081 23993 17330 16281 8312 8386 12386 6091 10190
shrinkage=0.2


Tree=8
num_leaves=22
num_cat=0
split_feature=1 1 1 1 1 1 1 1 1 1 1 1 3 2 1 2 2 2 2 3 3
split_gain=24888.3 20502.8 14355.6 7687.64 13244.5 11213.2 4268.94 5176.16 4134.08 2781 3216.28 3677.45 545.73 380.837 245.557 112.313 103.1 67.9567 25.2655 24.7631 1.27444
threshold=5.5000000000000009 15.500000000000002 17.500000000000004 36.500000000000007 34.500000000000007 49.500000000000007 3.5000000000000004 1.5000000000000002 2.5000000000000004 14.500000000000002 13.500000000000002 9.5000000000000018 4.5000000000000009 2.5000000000000004 16.500000000000004 4.5000000000000009 2.5000000000000004 4.5000000000000009 11.500000000000002 4.5000000000000009 5.5000000000000009
decision_type=2 2 2 2 2 2 2 2 2 2 2 2 2 2 2 2 2 2 2 2 2
left_child=6 9 14 4 -4 -5 7 -1 13 10 11 -2 -12 -9 20 -10 19 -16 -18 -11 -3
right_child=1 2 3 5 -6 -7 -8 8 15 16 12 -13 -14 -15 17 -17 18 -19 -20 -21 -22
leaf_value=-2.7484748799999998 0.7069926400000015 -2.3971404800000005 0.056105983999999866 -1.3857126399999993 3.7532880640000004 2.9626419200000003 -2.9097574399999999 -0.28327936000000165 -1.5324757759999998 1.7496774400000008 -0.81984128000000001 2.4537768959999995 0.55102463999999995 1.0256691200000005 -1.8390824960000005 -1.2103244799999999 5.9364403200000018 -1.5829606399999989 3.0149772799999996 3.4241395200000002 -2.2130124800000006
leaf_count=11662 46659 9996 198586 151811 23457 11744 23488 1908 3771 1362 8349 46739 3306 9831 3900 7946 8718 7886 995 544 1662
internal_value=0 0.0302385 -0.0752262 -0.029022 0.0921517 -0.193545 -0.656775 -0.435834 -0.164922 0.400008 0.348594 0.410412 -0.146501 0.254294 -0.834945 -0.585148 0.864391 -0.731439 0.907158 0.643759 -0.939109
internal_count=584320 525714 409042 385598 222043 163555 58606 35118 23456 116672 105053 93398 11655 11739 23444 11717 11619 11786 9713 1906 11658
shrinkage=0.2


Tree=9
num_leaves=23
num_cat=0
split_feature=1 1 1 1 1 1 1 2 1 2 3 3 3 1 1 3 2 1 0 0 1 0
split_gain=22385.6 14015.5 11969.9 7141.29 10646.9 4180.23 4963.79 3207.27 2838.16 2333.93 1198.77 878.162 846.033 670.347 335.383 326.785 224.339 197.138 135.966 87.1926 15.1265 14.9983
threshold=5.5000000000000009 15.500000000000002 17.500000000000004 18.500000000000004 21.500000000000004 3.5000000000000004 1.5000000000000002 3.5000000000000004 2.5000000000000004 8.5000000000000018 2.5000000000000004 2.5000000000000004 4.5000000000000009 14.500000000000002 16.500000000000004 4.5000000000000009 2.5000000000000004 9.5000000000000018 3.5000000000000004 1.5000000000000002 4.5000000000000009 2.5000000000000004
decision_type=2 2 2 2 2 2 2 2 2 2 2 2 2 2 2 2 2 2 2 2 2 2
left_child=5 7 14 16 -5 6 -1 12 15 11 -11 -9 13 -2 21 -8 -4 -14 -10 -16 -7 -3
right_child=1 2 3 4 -6 20 8 9 18 10 -12 -13 17 -15 19 -17 -18 -19 -20 -21 -22 -23
leaf_value=-2.1987799039999998 -0.34558443520000143 -1.8327864320000018 1.506694963200002 -1.7177197567999998 0.043654963199999487 -1.9654443519999996 0.251696896 1.5495825408000004 -0.77511649280000094 0.11065902080000144 1.5092248320000003 3.4011537408000012 0.36521471999999877 1.5609419520000003 -2.0786590720000038 1.6454247679999989 4.6858898432000009 1.4917002239999988 -1.1638997248000009 -1.2452536320000023 -2.6891258879999995 -1.9149656320000004
leaf_count=11662 18465 2329 1894 34944 339047 11772 8406 21097 3545 16784 22181 27879 3285 2019 1172 3333 9713 4962 8172 10614 11716 9329
internal_value=0 0.0216369 -0.0655598 -0.0233685 -0.0473534 -0.629919 -0.41129 0.327362 -0.145996 0.422131 0.239322 0.567487 0.0371652 -0.0716018 -0.759284 0.201321 0.749004 0.307626 -0.494192 -0.63898 -0.956577 -0.880452
internal_count=584320 525714 409042 385598 373991 58606 35118 116672 23456 87941 38965 48976 28731 20484 23444 11739 11607 8247 11717 11786 23488 11658
shrinkage=0.2


Tree=10
num_leaves=32
num_cat=0
split_feature=4 3 0 0 0 3 0 2 0 0 0 2 2 2 0 0 2 3 2 0 0 0 0 0 2 0 0 0 2 2 2
split_gain=5847.16 3839.58 3085.74 7836.6 3478.98 1431.5 1207.06 1050.68 1044.82 2692.67 1025.38 736.981 583.549 551.468 364.652 353.798 311.371 226.871 221.184 208.472 207.58 183.726 151.064 197.619 111.836 65.2045 60.715 44.1297 26.8954 24.436 22.2508
threshold=2013.5000000000002 1.0000000180025095e-35 7.5000000000000009 4.5000000000000009 1.5000000000000002 1.0000000180025095e-35 8.5000000000000018 4.5000000000000009 7.5000000000000009 4.5000000000000009 1.5000000000000002 2.5000000000000004 2.5000000000000004 11.500000000000002 7.5000000000000009 8.5000000000000018 2.5000000000000004 4.5000000000000009 4.5000000000000009 7.5000000000000009 3.5000000000000004 1.5000000000000002 7.5000000000000009 4.5000000000000009 2.5000000000000004 8.5000000000000018 7.5000000000000009 8.5000000000000018 4.5000000000000009 2.5000000000000004 3.5000000000000004
decision_type=2 2 2 2 2 2 2 2 2 2 2 2 2 2 2 2 2 2 2 2 2 2 2 2 2 2 2 2 2 2 2
left_child=5 12 3 4 -3 19 16 -5 9 10 -7 -8 22 14 -14 24 -4 -17 -11 20 21 -1 23 -2 -10 29 -15 -24 -22 -21 -27
right_child=1 2 6 7 -6 8 11 -9 15 18 -12 -13 13 26 -16 17 -18 -19 -20 25 28 -23 27 -25 -26 30 -28 -29 -30 -31 -32
leaf_value=-2.4506067968000007 -1.0301427609599998 -0.57815901439999962 0.48939370496000123 -1.0121636454400005 1.2955810329599999 -1.4018732646399998 -0.4614154854399985 -0.56764716544000038 -0.44485047295999891 -1.5758659968000004 -0.026165504000000797 0.87754899456000146 -0.76894654463999934 -1.5587767807999997 -0.086625807359999391 -0.74845148160000008 2.4654192511999997 0.1308016025599997 -1.4130418944000001 -1.33378973696 -2.1462547046399991 -1.2137165721600014 -0.30139874815999979 -1.5617974886400015 0.81315598335999939 -1.6773058048000005 -0.9732191744000005 -0.9961007103999997 -2.0264799231999997 -0.52753019392000167 -1.3962811033600007
leaf_count=1655 4332 40107 6505 39605 120345 9962 12988 80550 1682 9787 29834 67116 35317 3857 15088 13512 33645 6730 20150 256 2233 3411 1081 3292 8286 771 1602 2154 4484 1411 2572
internal_value=0 0.00281638 0.0397938 -0.0176327 0.12697 -0.247363 0.173819 -0.210755 -0.201908 -0.269214 -0.0986685 0.102824 -0.219284 -0.177939 -0.145134 -0.0464338 0.315367 -0.122445 -0.495789 -0.517619 -0.590695 -0.435771 -0.431589 -0.508841 0.107603 -0.344887 -0.480031 -0.248275 -0.706836 -0.179588 -0.426158
internal_count=584320 467584 400861 280607 160452 116736 120254 120155 99943 69733 39796 80104 66723 55864 50405 30210 40150 20242 29937 16793 11783 5066 10859 7624 9968 5010 5459 3235 6717 1667 3343
shrinkage=0.2


Tree=11
num_leaves=28
num_cat=0
split_feature=1 1 1 1 1 1 1 1 4 1 1 1 2 2 4 1 1 0 0 4 1 2 2 2 2 0 0
split_gain=19610.1 9731.67 10001.9 6067.34 15456.6 4908.75 3801.53 4375.6 2971.95 2249.2 1937.87 1649.25 800.929 814.104 371.006 319.983 276.679 188.557 115.363 89.3296 51.6468 25.452 25.0781 6.10002 5.62724 4.79405 0.324773
threshold=5.5000000000000009 15.500000000000002 17.500000000000004 39.500000000000007 41.500000000000007 23.500000000000004 3.5000000000000004 1.5000000000000002 2015.5000000000002 2.5000000000000004 14.500000000000002 13.500000000000002 3.5000000000000004 11.500000000000002 2015.5000000000002 16.500000000000004 14.500000000000002 7.5000000000000009 1.5000000000000002 2015.5000000000002 4.5000000000000009 7.5000000000000009 2.5000000000000004 2.5000000000000004 2.5000000000000004 4.5000000000000009 6.5000000000000009
decision_type=2 2 2 2 2 2 2 2 2 2 2 2 2 2 2 2 2 2 2 2 2 2 2 2 2 2 2
left_child=6 8 15 5 -5 -4 7 23 10 14 11 -2 16 -14 -9 21 -10 -12 -11 -17 22 -3 25 -1 -22 -8 -24
right_child=1 2 3 4 -6 -7 20 9 12 18 17 -13 13 -15 -16 19 -18 -19 -20 -21 24 -23 26 -25 -26 -27 -28
leaf_value=-1.1131971612159994 0.46039148748799907 -1.4127718686719988 -0.73927703603200001 -2.6988879431679993 -0.13717994291200172 0.92229027123200213 -1.2850240721920003 0.08087824588799819 0.50862167782400147 -1.4420489753599997 2.1103400704000008 -0.96764585727999874 2.6012066158079996 0.34168995072000002 1.1635992878080004 -1.1741150387200008 2.6012130682880015 4.3278355087360003 -0.76934177843200047 -0.88335174451200094 -1.3103447695360015 -1.6545279441920002 -1.5950279347199996 -1.8760096901120002 -2.3373103042560004 -0.81825683251200021 -1.8305212805120008
leaf_count=1905 55818 6776 69916 23444 104958 187470 744 7019 10393 1172 4868 7040 31253 3958 4659 6977 1174 2119 10590 4714 1907 4875 5890 9770 9825 1154 3932
internal_value=0 0.0192293 -0.0534029 -0.0149327 -0.192492 0.0736353 -0.590779 -0.382366 0.274055 -0.133042 0.143339 0.0877318 0.469142 0.544213 0.177631 -0.68901 0.240269 0.642909 -0.441728 -0.570885 -0.90262 -0.8071 -0.85191 -0.88251 -0.952787 -0.731689 -0.8746
internal_count=584320 525753 409130 385788 128402 257386 58567 35115 116623 23440 69845 62858 46778 35211 11678 23342 11567 6987 11762 11691 23452 11651 11720 11675 11732 1898 9822
shrinkage=0.2


Tree=12
num_leaves=32
num_cat=0
split_feature=3 4 2 2 2 2 2 2 2 0 0 0 2 0 0 2 4 0 0 2 0 0 0 2 0 2 0 0 0 0 4
split_gain=4685.29 3075.19 1658.68 2364.12 1348.18 1123.1 1373.19 1114.14 734.459 597.869 513.642 967.745 475.411 428.53 938.844 420.997 371.174 339.966 320.419 292.566 273.97 239.444 178.042 156.824 146.363 142.778 128.209 78.9327 72.7333 68.3587 38.0917
threshold=4.5000000000000009 2015.5000000000002 4.5000000000000009 8.5000000000000018 3.5000000000000004 4.5000000000000009 8.5000000000000018 8.5000000000000018 11.500000000000002 7.5000000000000009 7.5000000000000009 3.5000000000000004 5.5000000000000009 7.5000000000000009 4.5000000000000009 11.500000000000002 2014.5000000000002 3.5000000000000004 4.5000000000000009 7.5000000000000009 3.5000000000000004 8.5000000000000018 3.5000000000000004 1.5000000000000002 8.5000000000000018 1.5000000000000002 7.5000000000000009 7.5000000000000009 3.5000000000000004 7.5000000000000009 2013.5000000000002
decision_type=2 2 2 2 2 2 2 2 2 2 2 2 2 2 2 2 2 2 2 2 2 2 2 2 2 2 2 2 2 2 2
left_child=1 2 10 9 16 13 20 12 -5 -4 11 -1 22 14 -3 18 23 -8 -9 -14 -7 -12 -6 30 -15 29 -17 -25 -27 -18 -2
right_child=4 5 3 8 7 6 17 15 -10 -11 21 -13 19 24 -16 26 25 -19 -20 -21 -22 -23 -24 27 -26 28 -28 -29 -30 -31 -32
leaf_value=-0.65648632104959859 -1.0922940952576015 -0.16420082954239917 -0.22261414261760068 -0.70058953512960087 1.8259101973504004 1.7686961923584024 0.3501598652416007 1.3043322481664008 -1.0996241299456002 0.73247424266239713 -0.1234194056703995 -1.1523712311295995 2.4152563554303992 0.74758984560640163 -0.92431414312960103 -0.57732786421759819 -0.45816532264960019 -0.39986602352639977 0.10443271792640019 1.0951193097216021 0.62284980899840159 -0.7864108061695998 0.41484521943039926 -0.55985861232640133 -0.20238934691839994 1.0169210988543995 0.13418939740160027 0.052496689254400056 0.11552276285439973 0.21293725752319972 -0.72029766696959996
leaf_count=24775 2579 21961 58611 62499 8472 16922 16558 16607 21854 25232 8317 33006 27829 5466 16418 9852 6328 38610 24855 14476 39763 16521 19325 8035 10849 4690 4350 3443 10937 2694 2486
internal_value=0 -0.103652 -0.1736 -0.11657 0.0945545 0.00166858 0.0591109 0.145989 -0.234766 0.0023126 -0.289656 -0.341408 0.229868 -0.115745 -0.173464 0.0402915 -0.0624082 -0.0531603 0.0912313 0.29668 0.168429 -0.169112 0.128054 -0.178285 0.0198494 0.0152484 -0.108195 -0.113135 0.0731866 -0.0847542 -0.325162
internal_count=584320 417362 250815 168196 166958 166547 111853 125766 84353 83843 82619 57781 70102 54694 38379 55664 41192 55168 41462 42305 56685 24838 27797 16543 16315 24649 14202 11478 15627 9022 5065
shrinkage=0.2


Tree=13
num_leaves=31
num_cat=0
split_feature=4 3 0 0 0 0 3 0 0 0 0 0 2 0 0 0 0 2 0 0 0 0 2 0 0 2 2 0 2 2
split_gain=3430.68 2422.42 1972.38 4664.69 2613.13 1167.97 1010.53 790.439 658.15 1604.73 1148.02 479.22 387.631 368.731 1063.89 535.108 273.785 236.181 215.766 144.367 159.974 153.457 104.986 47.2433 43.2879 42.6007 34.7504 24.0471 22.2111 21.3751
threshold=2013.5000000000002 1.0000000180025095e-35 7.5000000000000009 4.5000000000000009 1.5000000000000002 6.5000000000000009 1.0000000180025095e-35 8.5000000000000018 3.5000000000000004 7.5000000000000009 1.5000000000000002 6.5000000000000009 2.5000000000000004 1.5000000000000002 2.5000000000000004 7.5000000000000009 2.5000000000000004 4.5000000000000009 8.5000000000000018 7.5000000000000009 3.5000000000000004 1.5000000000000002 4.5000000000000009 8.5000000000000018 6.5000000000000009 2.5000000000000004 11.500000000000002 9.5000000000000018 3.5000000000000004 1.5000000000000002
decision_type=2 2 2 2 2 2 2 2 2 2 2 2 2 2 2 2 2 2 2 2 2 2 2 2 2 2 2 2 2 2
left_child=6 13 3 4 -3 -5 19 17 10 11 22 -10 -9 26 25 -16 -12 -4 -11 20 21 -1 -8 28 -22 -15 29 -25 -21 -2
right_child=1 2 7 5 -6 -7 8 12 9 18 16 -13 -14 14 15 -17 -18 -19 -20 23 24 -23 -24 27 -26 -27 -28 -29 -30 -31
leaf_value=-1.7408572558028794 -1.2787844464844795 -0.52829025038848065 0.69448721415680059 -0.30889230588927996 0.95923044067327945 -0.9306021323980801 -1.2617033533132795 -0.29064780704767657 -0.8059433664716793 0.41162606979072081 1.0978774244659235 -1.366748271482878 0.6036297330483209 0.1144169780428797 -0.78762353779199978 -0.2859405860403193 -0.035478857646081254 2.0351031449600017 -0.35183694645248098 -0.92418654385152055 -1.3320483577036797 -0.78778540090367954 -0.83994093593599795 -1.2699038475468798 -1.6989878128588793 1.2456558451763202 -1.6627495805747188 -0.80423706195967815 -0.3042176134348793 -1.2177492113100812
leaf_count=1655 560 40107 13165 79797 120345 40358 3279 12988 29939 9968 9918 9948 67116 1066 33423 19925 9966 26985 20242 386 5018 3411 6683 1658 1699 5605 580 1685 1281 5564
internal_value=0 -0.0014947 0.0278646 -0.0180461 0.0935147 -0.167046 -0.19314 0.135018 -0.154943 -0.207902 -0.0304501 -0.339582 0.0775576 -0.17792 -0.152976 -0.200088 0.108257 0.249568 -0.0339226 -0.420215 -0.481073 -0.345023 -0.307568 -0.276265 -0.583026 0.223242 -0.400615 -0.345463 -0.135275 -0.376844
internal_count=584320 467584 400861 280607 160452 120155 116736 120254 99943 70097 29846 39887 80104 66723 60019 53348 19884 40150 30210 16793 11783 5066 9962 5010 6717 6671 6704 3343 1667 6124
shrinkage=0.2


Tree=14
num_leaves=29
num_cat=0
split_feature=1 1 1 1 1 1 1 1 1 1 1 1 1 1 0 4 0 3 1 0 0 0 0 0 0 0 0 0
split_gain=15398.9 7310.7 7695.05 6192.05 7986.75 3129.2 3546.93 2803.27 2864.28 4535.39 1621.53 1407.11 4214.73 268.902 237.991 211.08 199.555 160.49 84.4821 66.3999 50.8385 37.3831 120.331 29.3882 102.921 25.8796 103.595 20.6728
threshold=5.5000000000000009 15.500000000000002 17.500000000000004 18.500000000000004 21.500000000000004 3.5000000000000004 1.5000000000000002 9.5000000000000018 8.5000000000000018 7.5000000000000009 2.5000000000000004 14.500000000000002 13.500000000000002 16.500000000000004 1.5000000000000002 2013.5000000000002 4.5000000000000009 5.5000000000000009 4.5000000000000009 1.5000000000000002 1.5000000000000002 7.5000000000000009 4.5000000000000009 7.5000000000000009 4.5000000000000009 7.5000000000000009 4.5000000000000009 8.5000000000000018
decision_type=2 2 2 2 2 2 2 2 2 2 2 2 2 2 2 2 2 2 2 2 2 2 2 2 2 2 2 2
left_child=5 7 13 15 -5 6 25 8 9 -2 14 12 -9 27 -8 -4 -13 -10 21 -12 -15 22 -7 24 -20 26 -1 -3
right_child=1 2 3 4 -6 18 10 11 17 -11 19 16 -14 20 -16 -17 -18 -19 23 -21 -22 -23 -24 -25 -26 -27 -28 -29
leaf_value=-1.6300029749903375 -0.15841342578687972 -1.1395834116300818 1.7199324719964169 -1.1867747981168648 0.08382385549721505 -1.4823830056591363 -0.48365529343078467 1.4942739096514552 -0.9447751946434565 2.5872163816591356 -1.0418326617292806 4.2034460900449293 -0.5672522940047372 -1.1803094014883855 0.52558299135385489 3.8165321134095374 2.2308146749992939 -0.21715392666624 -2.0235899428464643 -0.60088059752857825 -0.7914384502456322 -1.577789689298944 -0.68868672147507126 -2.173679685754879 -0.96913769797222393 -1.7398770017853467 -0.83677828906547236 -1.5034281370736662
leaf_count=4718 23291 9326 2285 35066 339144 4666 1158 46717 9936 11728 1172 4647 11694 1178 10520 9293 6981 1629 4673 10590 10513 3533 3521 3528 3531 3512 3445 2325
internal_value=0 0.0189249 -0.044027 -0.0102825 -0.0325774 -0.521631 -0.332534 0.239791 0.0496041 0.192162 -0.108045 0.366236 0.302871 -0.601539 0.155715 0.709864 0.684115 -0.381736 -0.80456 -0.370159 -0.493238 -0.74187 -0.701336 -0.866719 -0.829407 -0.782835 -0.747727 -0.709794
internal_count=584320 525753 409130 385788 374210 58567 35115 116623 46584 35019 23440 70039 58411 23342 11678 11578 11628 11565 23452 11762 11691 11720 8187 11732 8204 11675 8163 11651
shrinkage=0.2


Tree=15
num_leaves=32
num_cat=0
split_feature=3 4 0 0 0 4 2 0 0 0 0 2 0 2 2 2 2 0 0 2 0 0 0 0 0 0 2 0 3 3 3
split_gain=2878.51 1865.76 1049.14 2202.93 2147.63 842.422 768.577 742.352 664.624 621.115 1398.67 493.267 454.934 450.559 338.241 348.508 294.291 274.003 173.159 154.965 152.935 131.21 232.612 103.812 91.1502 161.219 90.3886 51.3963 42.402 38.4578 22.2851
threshold=4.5000000000000009 2015.5000000000002 3.5000000000000004 7.5000000000000009 1.5000000000000002 2015.5000000000002 1.5000000000000002 2.5000000000000004 6.5000000000000009 7.5000000000000009 3.5000000000000004 2.5000000000000004 8.5000000000000018 9.5000000000000018 4.5000000000000009 8.5000000000000018 4.5000000000000009 8.5000000000000018 7.5000000000000009 4.5000000000000009 3.5000000000000004 7.5000000000000009 4.5000000000000009 3.5000000000000004 7.5000000000000009 3.5000000000000004 1.5000000000000002 8.5000000000000018 5.5000000000000009 5.5000000000000009 2.5000000000000004
decision_type=2 2 2 2 2 2 2 2 2 2 2 2 2 2 2 2 2 2 2 2 2 2 2 2 2 2 2 2 2 2 2
left_child=1 2 4 8 19 11 24 -6 -4 10 -8 26 -5 16 21 23 -13 -11 -15 -1 -17 22 -7 -16 25 -3 28 -23 -2 -28 -26
right_child=5 6 3 12 7 14 9 -9 -10 17 -12 13 -14 18 15 20 -18 -19 -20 -21 -22 27 -24 -25 30 -27 29 -29 -30 -31 -32
leaf_value=-1.0315406950215682 -0.77867650611384398 -0.37012952760401846 -0.61624172804894572 0.28976850882221966 0.93556725769011218 0.66242339562372909 0.58322157571676103 -0.12128611485777868 -1.0274607120166892 1.3383473203580991 -0.36597654096670595 -0.052858937848115066 -0.36274200847646726 -0.45483398976798528 3.4882187916390421 1.5820172601673734 0.79857248528486413 0.30915302022676772 0.35123607792414763 -0.69933796701900808 0.33719602108006441 1.6631620607514634 -0.38145599955660647 1.6519779188891635 -0.4932318392758262 -0.86972129496350881 -0.40637093637406707 0.58381697198203286 -0.40067106844876577 0.016690430584830551 -0.039730392339249222
leaf_count=8213 4200 4134 74795 25169 25069 8934 45825 25084 25040 15347 61402 16941 50211 17542 6734 6785 42327 30565 7474 16750 16011 2203 6681 15420 2511 5436 3806 4422 3848 3842 1599
internal_value=0 -0.076214 -0.130809 -0.173201 -0.0318815 0.0790852 0.00569411 0.0873656 -0.270638 0.0260014 -0.0156477 0.0208526 -0.0441068 0.051193 0.165686 0.215623 0.0987145 0.123335 -0.0612697 -0.271566 0.128554 0.0646003 0.0143362 0.305047 -0.221363 -0.275036 -0.14185 0.182546 -0.215987 -0.0633781 -0.0955281
internal_count=584320 417150 250331 175215 75116 167170 166819 50153 99835 153139 107227 99980 75380 84284 67190 44950 59268 45912 25016 24963 22796 22240 15615 22154 13680 9570 15696 6625 8048 7648 4110
shrinkage=0.2


Tree=16
num_leaves=28
num_cat=0
split_feature=1 1 1 1 1 1 1 1 1 1 1 1 2 2 4 2 2 0 0 2 1 0 2 0 0 0 2
split_gain=11288.9 5649.55 9607.73 13350.2 9260.51 12257.1 9808.74 6907.69 2449.96 2681.53 1124.4 616.625 510.395 325.11 255.8 222.382 219.667 127.108 309.642 83.6663 72.8497 61.5367 60.5834 51.7824 48.8578 47.2854 43.8534
threshold=5.5000000000000009 36.500000000000007 34.500000000000007 33.500000000000007 37.500000000000007 38.500000000000007 42.500000000000007 32.500000000000007 3.5000000000000004 1.5000000000000002 2.5000000000000004 35.500000000000007 2.5000000000000004 11.500000000000002 2013.5000000000002 11.500000000000002 2.5000000000000004 4.5000000000000009 7.5000000000000009 11.500000000000002 4.5000000000000009 4.5000000000000009 2.5000000000000004 1.5000000000000002 7.5000000000000009 2.5000000000000004 1.5000000000000002
decision_type=2 2 2 2 2 2 2 2 2 2 2 2 2 2 2 2 2 2 2 2 2 2 2 2 2 2 2
left_child=8 2 3 7 -3 26 -7 -2 9 16 13 14 17 -11 -4 20 21 23 -19 -18 -14 -1 -13 -10 -17 -12 -6
right_child=1 4 11 -5 5 6 -8 -9 12 10 25 22 15 -15 -16 24 19 18 -20 -21 -22 -23 -24 -25 -26 -27 -28
leaf_value=-0.80343368921071701 0.20460457097652204 -4.0852659245590948 0.7203935609007921 -5.0660592804875684 2.0522747008114486 -1.2190578928253317 0.19205796933300265 3.2025667334418033 -0.29929836185784281 0.49199431610588962 -0.33742851645927208 1.888569199315721 -1.232530569436262 -0.871345248485622 2.0006108886398772 -0.4087606926288892 -1.3555132961872305 0.17203439674287058 -0.69624029471543381 -0.61158350265778205 -1.6824403149145295 -0.22753837485787118 4.4356253617538668 -0.90384262808453286 -1.0173509862361514 -0.54653932477495182 4.7970554858439272
leaf_count=761 315487 11620 2395 11810 1007 46889 93200 11752 376 10647 2343 1853 8757 995 9325 1394 8780 1115 1162 981 8849 1116 9850 1146 598 9359 10753
internal_value=0 0.0184238 0.0880306 0.0452258 -0.1359 -0.0700281 -0.152371 0.0829353 -0.445067 -0.277345 -0.0816767 0.707416 -0.695638 0.138163 0.544309 -0.760826 -0.669439 -0.358212 -0.206102 -0.730023 -0.796919 -0.352085 0.870318 -0.582906 -0.439561 -0.300634 0.910393
internal_count=584320 525941 362472 339049 163469 151849 140089 327239 58379 34982 23344 23423 23397 11642 11720 19598 11638 3799 2277 9761 17606 1877 11703 1522 1992 11702 11760
shrinkage=0.2


Tree=17
num_leaves=31
num_cat=0
split_feature=1 1 1 1 1 1 1 1 1 1 1 2 2 2 2 2 2 0 4 0 0 0 4 0 4 0 4 0 2 0
split_gain=7925.72 5645.03 13158.3 14932.1 12260.6 2833.56 8130.89 1860.15 1979.28 705.561 650.163 393.842 222.277 200.737 185.602 185.188 162.175 111.334 91.2741 88.6771 78.7857 62.2721 61.7825 54.8353 42.9119 39.1141 33.5964 20.0985 6.31883 3.42651
threshold=5.5000000000000009 49.500000000000007 46.500000000000007 44.500000000000007 39.500000000000007 47.500000000000007 48.500000000000007 3.5000000000000004 1.5000000000000002 2.5000000000000004 45.500000000000007 2.5000000000000004 1.5000000000000002 11.500000000000002 2.5000000000000004 2.5000000000000004 11.500000000000002 7.5000000000000009 2015.5000000000002 4.5000000000000009 7.5000000000000009 1.5000000000000002 2013.5000000000002 4.5000000000000009 2013.5000000000002 4.5000000000000009 2013.5000000000002 7.5000000000000009 1.5000000000000002 4.5000000000000009
decision_type=2 2 2 2 2 2 2 2 2 2 2 2 2 2 2 2 2 2 2 2 2 2 2 2 2 2 2 2 2 2
left_child=7 2 3 4 -2 -4 -7 8 14 12 -5 18 -10 17 25 24 22 -13 19 -9 -16 -11 -17 -15 28 -1 -18 -26 -3 -20
right_child=1 15 5 10 -6 6 -8 11 9 21 -12 13 -14 23 20 16 26 -19 29 -21 -22 -23 -24 -25 27 -27 -28 -29 -30 -31
leaf_value=-0.64274695136857363 0.23670672644788909 -0.013803676998443849 -5.0951892384178086 6.0219373261408355 -1.2277818686367674 0.44044050482836428 -3.7006881086666272 -0.45609762730381292 -0.5750079799044826 -0.79771389514330915 1.8044322695261266 -1.0088273364224816 0.39333431378492212 -0.72700855410311149 -0.87261144181941441 1.7404436013080671 0.0062106882662504859 -1.5197693209417957 -0.76442725916495824 -0.0094457060790624336 -1.3593628057664233 -0.36542899319965089 3.2412319024533987 -0.24540804011126857 0.73020540486083552 -0.18203069988629697 1.1348655021146186 1.905085132403106 0.51407663277056914 -0.43873874786005235
leaf_count=761 397694 203 11750 11642 58360 11673 11516 910 974 1192 11663 12319 10668 798 6800 1722 202 5287 612 1380 2961 10510 7000 1194 1072 1116 796 468 180 897
internal_value=0 0.0087574 -0.00682655 0.0363523 -0.00354101 -0.599277 -0.396254 -0.379602 -0.23344 -0.0653148 0.817056 -0.597946 0.108794 -0.655218 -0.570306 0.69723 0.753774 -0.689473 -0.301399 -0.173097 -0.625966 -0.23878 0.797816 -0.350336 0.409098 -0.278679 0.364557 0.484075 0.0982055 -0.493338
internal_count=584320 525941 514298 479359 456054 34939 23189 58379 34982 23344 23305 23397 11642 19598 11638 11643 9720 17606 3799 2290 9761 11702 8722 1992 1923 1877 998 1540 383 1509
shrinkage=0.2


Tree=18
num_leaves=30
num_cat=0
split_feature=1 1 1 1 1 1 1 1 1 1 1 3 1 2 3 3 2 3 0 0 2 0 2 2 0 2 2 2 2
split_gain=5412.09 4869.84 12497.9 11854.7 10525.2 6174.36 2721.82 7431.35 1330.66 1396.51 901.737 497.453 457.255 289.155 244.698 222.493 190.033 190.004 188.954 129.185 121.34 101.156 78.267 54.5738 51.0105 43.3488 42.4004 39.95 33.386
threshold=5.5000000000000009 46.500000000000007 49.500000000000007 44.500000000000007 43.500000000000007 42.500000000000007 47.500000000000007 48.500000000000007 3.5000000000000004 1.5000000000000002 45.500000000000007 3.5000000000000004 2.5000000000000004 3.5000000000000004 1.0000000180025095e-35 2.5000000000000004 3.5000000000000004 3.5000000000000004 4.5000000000000009 7.5000000000000009 1.5000000000000002 7.5000000000000009 3.5000000000000004 10.500000000000002 4.5000000000000009 7.5000000000000009 3.5000000000000004 3.5000000000000004 1.5000000000000002
decision_type=2 2 2 2 2 2 2 2 2 2 2 2 2 2 2 2 2 2 2 2 2 2 2 2 2 2 2 2 2
left_child=8 3 6 4 5 -2 -3 -8 9 17 28 13 15 21 26 -11 -12 19 -15 -1 -16 -10 24 -24 -13 -14 -4 -19 -5
right_child=1 2 14 10 -6 -7 7 -9 11 12 16 22 25 18 20 -17 -18 27 -20 -21 -22 -23 23 -25 -26 -27 -28 -29 -30
leaf_value=-0.33875029130458895 0.0015987015292559194 -4.0761513907342461 -0.11994696869352738 2.1013537662878976 -2.2541280726177733 1.8289116279682731 0.35235240386269101 -2.9605504869333021 -0.0039764518339630685 -0.15562102435101652 0.63061596805487319 -0.94800992189403388 -0.23379404354898484 -0.97375015530545217 0.53568237069699765 0.54325814215394386 1.8095417047939357 -0.60953778907393819 -0.45944576353129229 -0.8457827939587248 2.2321524569801512 -0.41075430154380899 -1.3791755175641507 -0.83428890326563376 -0.46588227529647813 -0.44265771815565674 0.83600083297920313 -1.1484264658272445 5.1207293606497561
leaf_count=4644 432741 11750 413 1009 11714 11599 11673 11516 2294 4968 2890 973 6791 4068 873 6674 8773 1198 6029 2018 9082 1034 5866 1675 1458 4911 1275 3778 10633
internal_value=0 0.000650074 -0.308016 0.030653 -0.00489172 0.0197705 -0.607061 -0.408068 -0.320269 -0.196625 0.726272 -0.504954 -0.0553778 -0.378606 0.589038 0.0847494 0.528881 -0.479592 -0.462963 -0.36773 0.648919 -0.121558 -0.67458 -0.726132 -0.512707 -0.195037 0.233539 -0.628426 0.923568
internal_count=584320 525941 46582 479359 456054 444340 34939 23189 58379 34982 23305 23397 23344 13425 11643 11642 11663 11638 10097 6662 9955 3328 9972 7541 2431 11702 1688 4976 11642
shrinkage=0.2


Tree=19
num_leaves=26
num_cat=0
split_feature=1 1 1 1 1 1 1 1 1 2 2 3 2 3 2 2 4 4 4 2 3 4 4 2 3
split_gain=4563.81 10203 9699.95 8336.45 4736.74 9318.15 2724.62 6508.26 920.966 299.211 234.539 230.233 213.985 119.79 111.866 141.259 79.2503 76.5023 55.692 53.3548 47.1362 35.3979 27.7902 14.6205 3.03298
threshold=46.500000000000007 49.500000000000007 44.500000000000007 43.500000000000007 42.500000000000007 39.500000000000007 47.500000000000007 48.500000000000007 45.500000000000007 3.5000000000000004 11.500000000000002 2.5000000000000004 4.5000000000000009 1.0000000180025095e-35 3.5000000000000004 9.5000000000000018 2013.5000000000002 2013.5000000000002 2013.5000000000002 3.5000000000000004 3.5000000000000004 2013.5000000000002 2014.5000000000002 8.5000000000000018 5.5000000000000009
decision_type=2 2 2 2 2 2 2 2 2 2 2 2 2 2 2 2 2 2 2 2 2 2 2 2 2
left_child=2 6 3 4 5 -1 -2 9 13 -8 12 14 -10 21 22 -16 23 -6 -15 -18 -12 -4 -3 -13 -5
right_child=1 11 8 24 17 -7 7 -9 10 -11 20 16 -14 18 15 -17 19 -19 -20 -21 -22 -23 -24 -25 -26
leaf_value=0.022096866082941348 -3.2609211125873969 -0.26830541922364687 0.7991307982848227 -1.8191949295864989 0.87504252105474478 -1.1220951374243604 -0.29252444884366718 -2.3684403895466417 0.61192571854527389 0.55862250043769568 -0.32796597448599418 1.2325932256828325 1.7748129792506064 2.7219259239889113 1.5813396727845608 0.27384987150957302 1.1803947463732223 1.6062399224852202 4.6002902010356124 2.8048829805340589 0.41966208352553025 2.3269767982352607 0.33518335225177226 0.68581434883939352 -1.6729196925639416
leaf_count=456073 11750 474 344 10022 2333 35047 2913 11516 3842 8760 588 878 6807 2001 2495 1272 1307 9266 7983 4011 426 1314 770 436 1692
internal_value=0 -0.333604 -0.00732119 -0.0359149 -0.0164741 -0.0313993 -0.603799 -0.404705 0.623646 0.121267 0.424303 0.476896 0.468074 0.822924 0.313506 0.399449 0.599689 0.615061 0.865019 0.65494 -0.0323539 0.566485 0.0504449 0.372757 -0.869757
internal_count=584320 46582 537738 514433 502719 491120 34939 23189 23305 11673 11663 11643 10649 11642 5011 3767 6632 11599 9984 5318 1014 1658 1244 1314 11714
shrinkage=0.2


Tree=20
num_leaves=29
num_cat=0
split_feature=1 1 1 1 1 1 1 1 1 1 0 0 3 0 3 0 2 2 0 0 3 2 2 2 2 2 0 2
split_gain=4634.89 8298.98 6793.81 6468.76 4467.99 3666.35 2748.41 5386.98 972.396 684.333 351.243 810.293 285.099 282.564 275.606 232.556 226.171 222.823 125.28 91.1768 47.1519 33.3879 29.4455 18.0882 7.18976 54.4407 5.81018 2.72814
threshold=46.500000000000007 49.500000000000007 44.500000000000007 43.500000000000007 5.5000000000000009 15.500000000000002 47.500000000000007 48.500000000000007 3.5000000000000004 45.500000000000007 7.5000000000000009 4.5000000000000009 3.5000000000000004 1.5000000000000002 1.0000000180025095e-35 7.5000000000000009 2.5000000000000004 11.500000000000002 6.5000000000000009 7.5000000000000009 1.0000000180025095e-35 1.5000000000000002 7.5000000000000009 4.5000000000000009 7.5000000000000009 6.5000000000000009 2.5000000000000004 10.500000000000002
decision_type=2 2 2 2 2 2 2 2 2 2 2 2 2 2 2 2 2 2 2 2 2 2 2 2 2 2 2 2
left_child=2 6 3 4 8 -6 -2 12 -1 16 11 13 -8 -3 22 -16 19 -18 -13 -4 23 -22 -11 -12 25 -5 -9 -26
right_child=1 10 9 24 5 -7 7 26 -10 14 20 18 -14 -15 15 -17 17 -19 -20 -21 21 -23 -24 -25 27 -27 -28 -29
leaf_value=-0.29167977474057522 -2.6197925279097292 0.32788114436211518 0.61594398849623255 -1.3947420214286881 0.52647080460032214 -0.13089829050834964 -0.070216175183096405 -1.8266331834494083 -0.62595494112420236 0.22006545986045867 0.2742255386725802 0.083503607590122902 0.6722163525026702 2.3329398761322593 0.7623908661483747 1.999848513682573 3.9717813769913941 0.95991606953153985 -0.60973433286875156 2.0909980796963183 0.80414589545225545 2.5135590904575227 -0.30169146437343675 1.4503578381679547 -1.7380873989062149 -0.97844580772500545 -1.8951288369092127 -1.3338132913665846
leaf_count=35133 11630 1155 1330 5728 116790 327432 6685 2288 23445 988 172 2294 5031 3446 7077 2983 8687 1027 1176 574 254 2793 694 346 2905 1025 9255 1977
internal_value=0 -0.335624 -0.00662684 -0.0305846 -0.013518 0.0207078 -0.579558 -0.380789 -0.273108 0.520778 0.395474 0.279157 0.0966727 0.554286 0.349844 0.412494 0.693136 0.755268 -0.0849141 0.373845 0.657493 0.706209 -0.0230881 0.362612 -0.767653 -0.738002 -0.865577 -0.807563
internal_count=584320 46525 537795 514435 502800 444222 34889 23259 58578 23360 11636 8071 11716 4601 11742 10060 11618 9714 3470 1904 3565 3047 1682 518 11635 6753 11543 4882
shrinkage=0.2


Tree=21
num_leaves=30
num_cat=0
split_feature=1 1 1 1 1 1 1 1 1 4 3 3 4 2 4 3 2 2 4 2 2 4 3 2 2 2 2 2 2
split_gain=4310.27 6549.65 4634.23 4921.44 3422.4 5894.02 2594.57 4208.75 513.042 265.866 252.169 241.563 231.313 173.874 170.067 144.936 131.47 111.402 75.829 72.6767 80.1736 43.5926 30.3073 29.6943 20.9024 14.1629 49.8074 13.1557 2.12452
threshold=46.500000000000007 49.500000000000007 44.500000000000007 43.500000000000007 42.500000000000007 39.500000000000007 47.500000000000007 48.500000000000007 45.500000000000007 2013.5000000000002 3.5000000000000004 3.5000000000000004 2015.5000000000002 3.5000000000000004 2013.5000000000002 5.5000000000000009 4.5000000000000009 11.500000000000002 2013.5000000000002 3.5000000000000004 9.5000000000000018 2014.5000000000002 1.5000000000000002 2.5000000000000004 11.500000000000002 7.5000000000000009 6.5000000000000009 7.5000000000000009 10.500000000000002
decision_type=2 2 2 2 2 2 2 2 2 2 2 2 2 2 2 2 2 2 2 2 2 2 2 2 2 2 2 2 2
left_child=2 6 3 4 5 -1 23 9 11 -8 14 13 15 -4 -10 17 -6 -3 -12 22 -21 -13 -14 -2 -17 26 -5 -9 -27
right_child=1 12 8 25 16 -7 7 27 10 -11 18 21 19 -15 -16 24 -18 -19 -20 20 -22 -23 -24 -25 -26 28 -28 -29 -30
leaf_value=0.01949191020339569 -1.3254634760826214 0.48731887292440917 0.48470947044627055 -1.1157936171429506 0.72461719291155546 -0.85816453019007077 -0.41420119767644864 -1.4136441895273699 -0.30805898416474808 0.35609071608435416 0.50038741985741952 2.500996354573465 0.032125944306518765 2.2160717253555022 0.54736511141129118 2.1026959613500451 1.4850825909366883 -0.45222312939666409 1.5832726806639699 2.4385219689673265 0.98803797174108754 4.2853876034339038 0.86262993051294645 -2.2518211437282467 0.34522939997683866 -1.3904699191249721 -0.78275664618000462 -1.613598103544138 -1.0670506330932674
leaf_count=456047 1859 5473 1661 5728 3876 35058 2339 6758 1373 9377 1031 1988 336 4952 5286 921 7819 518 4052 2321 1140 3017 842 9771 85 2905 1025 4785 1977
internal_value=0 -0.32376 -0.00649296 -0.0262809 -0.0113939 -0.024133 -0.540466 -0.347344 0.429094 0.0746571 0.281049 0.578344 0.325708 0.451319 0.152193 0.209988 0.52316 0.150135 0.449061 0.499338 0.573306 0.745196 0.278507 -0.92624 0.561874 -0.669182 -0.633797 -0.775848 -0.717081
internal_count=584320 46525 537795 514435 502800 491105 34889 23259 23360 11716 11742 11618 11636 6613 6659 6997 11695 5991 5083 4639 3461 5005 1178 11630 1006 11635 6753 11543 4882
shrinkage=0.2


Tree=22
num_leaves=32
num_cat=0
split_feature=1 1 1 1 1 1 1 1 1 1 1 2 1 1 1 0 0 2 2 0 3 2 0 0 2 2 2 0 2 0 3
split_gain=3707.1 4927.79 3476.44 3502.61 6964.34 10401.3 2398.32 3137.39 1929.23 1552.29 2522.25 429.945 402.512 945.191 320.39 277.564 654.758 217.654 216.553 209.082 159.29 107.265 86.2348 72.7538 60.6327 58.2614 41.9986 28.5034 22.2762 21.5356 13.3238
threshold=46.500000000000007 49.500000000000007 7.5000000000000009 15.500000000000002 21.500000000000004 22.500000000000004 47.500000000000007 48.500000000000007 17.500000000000004 14.500000000000002 13.500000000000002 3.5000000000000004 1.5000000000000002 2.5000000000000004 5.5000000000000009 7.5000000000000009 4.5000000000000009 11.500000000000002 1.5000000000000002 1.5000000000000002 2.5000000000000004 3.5000000000000004 6.5000000000000009 8.5000000000000018 11.500000000000002 2.5000000000000004 2.5000000000000004 1.5000000000000002 11.500000000000002 4.5000000000000009 4.5000000000000009
decision_type=2 2 2 2 2 2 2 2 2 2 2 2 2 2 2 2 2 2 2 2 2 2 2 2 2 2 2 2 2 2 2
left_child=2 6 12 9 8 -6 26 18 -5 10 -4 -11 20 17 -15 16 19 -14 -8 -3 21 -1 -18 30 -25 -22 29 -9 -28 -2 -17
right_child=1 15 3 4 5 -7 7 27 -10 11 -12 -13 13 14 -16 23 22 -19 -20 -21 25 -23 -24 24 -26 -27 28 -29 -30 -31 -32
leaf_value=0.027457782098951711 -1.3856177370897591 0.082360270717842354 0.73436120590561138 -0.89762956058023358 5.5764161890752604 0.05374784036904217 -0.59066385842782343 -1.568398220490808 -0.52380082132253847 0.57342444934050718 -0.64585302926090549 2.8269245243278736 0.33172968009096454 -0.40781930123260968 -0.30239478149899246 1.8915212008336113 -0.11181553692671004 -0.70242074382987174 0.23551122923508672 1.6532573074507013 -0.33345022771944638 -0.42886972528377787 -0.68714034122411227 1.2899762129246684 -0.21386141374839554 -0.80498506798151936 -1.8846266037168229 -1.1647174887391814 -1.1325386393176906 -0.80027816869104318 4.090103944410358
leaf_count=1231 749 1155 70112 23332 11729 280789 965 1125 46577 2861 11672 8824 10711 35211 23321 864 2294 996 10751 3446 1096 3767 1176 2163 212 5566 8764 10418 1007 1110 326
internal_value=0 -0.29999 -0.00575663 0.0283153 -0.0161904 0.0515686 -0.487961 -0.302292 -0.299747 0.200915 0.152138 0.541917 -0.195452 -0.166794 -0.218688 0.263332 0.160009 0.0923917 0.0620279 0.407455 -0.367737 -0.231337 -0.167265 0.496056 0.391052 -0.469456 -0.858845 -0.672262 -0.886837 -0.708882 0.701541
internal_count=584320 46525 537795 455896 362427 292518 34889 23259 69909 93469 81784 11685 81899 70239 58532 11636 8071 11707 11716 4601 11660 4998 3470 3565 2375 6662 11630 11543 9771 1859 1190
shrinkage=0.2


Tree=23
num_leaves=32
num_cat=0
split_feature=3 2 2 2 2 0 4 0 0 0 0 2 2 0 4 0 3 0 0 0 4 4 0 4 4 4 2 0 2 2 4
split_gain=2860 2294.12 4657.56 1602.22 1216.3 1041.87 648.683 449.305 1006.04 485.671 524.337 431.082 430.441 373.33 342.533 293.894 187.691 155.771 131.93 305.341 125.652 121.656 98.9511 76.317 60.3571 58.3354 50.0774 45.8723 40.0189 35.6085 3.64454
threshold=5.5000000000000009 4.5000000000000009 7.5000000000000009 5.5000000000000009 11.500000000000002 3.5000000000000004 2016.5000000000002 7.5000000000000009 4.5000000000000009 1.5000000000000002 2.5000000000000004 1.5000000000000002 6.5000000000000009 1.5000000000000002 2013.5000000000002 6.5000000000000009 1.0000000180025095e-35 8.5000000000000018 7.5000000000000009 3.5000000000000004 2013.5000000000002 2013.5000000000002 9.5000000000000018 2013.5000000000002 2016.5000000000002 2013.5000000000002 3.5000000000000004 8.5000000000000018 11.500000000000002 11.500000000000002 2016.5000000000002
decision_type=2 2 2 2 2 2 2 2 2 2 2 2 2 2 2 2 2 2 2 2 2 2 2 2 2 2 2 2 2 2 2
left_child=1 6 3 16 5 -4 11 8 9 24 -11 21 -5 -13 -6 20 -3 26 19 -8 -10 -1 25 -17 -2 -19 30 -20 -28 -24 -9
right_child=7 2 4 12 14 -7 18 17 15 10 -12 13 -14 -15 -16 23 -18 22 27 -21 -22 -23 29 -25 -26 -27 28 -29 -30 -31 -32
leaf_value=-0.76428289520039394 -0.10930743523873901 -0.42796646704113644 0.21756650159079599 0.5512443150432319 -0.90999583623256797 -0.32077150384357656 0.21626417055291258 0.68001277131952242 -0.31451985093682427 2.8476095791146863 0.79479185064279401 -0.79781938093488103 1.1717028161212113 -0.32277139998931831 -0.47201470500688675 -0.8746744341085062 0.061567177669380163 -0.10944593019759452 0.6193985626980294 -0.35345287473933529 0.1768272948960366 -0.53163755320184691 1.4413004532994194 -0.40466926797344738 0.57020429750452883 0.72490060170028703 2.8129471271514035 0.06330409021557841 0.71072188310537465 0.23320266014254828 1.6113775661518397
leaf_count=8625 6633 7031 50061 40972 8404 117093 9804 1654 3379 8374 16723 9715 42582 88153 34365 1666 35409 1690 3230 13122 13381 25394 7696 6713 1766 6731 5576 6557 681 736 404
internal_value=0 -0.0531645 -0.00576299 0.146217 -0.0969956 -0.0584654 -0.149881 0.146432 0.0983647 0.211854 0.281511 -0.18115 0.226587 -0.147367 -0.247496 -0.0527367 -0.0119431 0.25827 -0.0237163 -0.0652844 0.023558 -0.278229 0.202534 -0.205668 0.00332093 0.125108 0.370753 0.0733305 0.415962 0.279421 0.231399
internal_count=584320 500517 335917 125994 209923 167154 164600 83803 58635 33496 25097 131887 83554 97868 42769 25139 42440 25168 32713 22926 16760 34019 16853 8379 8399 8421 8315 9787 6257 8432 2058
shrinkage=0.2


Tree=24
num_leaves=31
num_cat=0
split_feature=1 1 1 1 1 1 1 1 1 1 2 2 3 2 4 4 3 2 2 2 2 2 2 4 3 3 4 2 3 3
split_gain=2939.62 3797.77 3103.07 3722.55 2641.99 9278.36 1792.48 2334.5 379.03 287.823 209.084 251.896 205.037 197.924 181.536 135.344 115.741 102.514 100.449 84.0887 67.9382 63.2491 60.4823 59.6794 23.942 23.815 20.926 18.8402 14.8101 11.3923
threshold=46.500000000000007 47.500000000000007 44.500000000000007 43.500000000000007 41.500000000000007 40.500000000000007 49.500000000000007 48.500000000000007 45.500000000000007 42.500000000000007 3.5000000000000004 8.5000000000000018 2.5000000000000004 11.500000000000002 2015.5000000000002 2015.5000000000002 1.5000000000000002 3.5000000000000004 2.5000000000000004 2.5000000000000004 11.500000000000002 2.5000000000000004 2.5000000000000004 2015.5000000000002 3.5000000000000004 3.5000000000000004 2015.5000000000002 5.5000000000000009 3.5000000000000004 3.5000000000000004
decision_type=2 2 2 2 2 2 2 2 2 2 2 2 2 2 2 2 2 2 2 2 2 2 2 2 2 2 2 2 2 2
left_child=2 19 3 4 5 -1 7 13 12 -6 23 -12 15 -3 16 -4 -10 -14 -16 25 24 -9 28 -8 -21 26 -2 -24 -5 -22
right_child=1 6 8 22 9 -7 10 21 14 -11 11 -13 17 -15 18 -17 -18 -19 -20 20 29 -23 27 -25 -26 -27 -28 -29 -30 -31
leaf_value=0.0086549045526510323 -0.37856160800664612 0.20018931051880884 0.5924969567407089 -0.36824432093121867 0.35766717988395025 -1.9634912739176551 -0.24860167364878125 -0.5202421883943863 -0.16683211437482015 0.94151999389392105 1.3535568073704185 0.2628424622596427 1.1401615509027694 -0.66756686164126222 0.062836255935673088 2.0581918135367063 0.48482543192176453 3.2608948647376055 1.3655912227243399 -1.2907451708748008 -0.60417783434497851 -1.0610613909839017 -1.1729195726236896 0.3716037623086621 -1.8520595599369287 -1.1416647484194529 -0.85494028653144127 -0.97547767317226863 -0.67305428162301772 -1.133784088001329
leaf_count=467736 632 10696 3012 1098 11649 11720 1714 1881 2011 11695 4859 3885 1684 1020 751 1980 5049 4942 3931 4996 578 9662 2878 1178 3768 799 428 6863 796 429
internal_value=0 -0.261862 0.000137416 -0.0160445 -0.00309645 -0.0190984 -0.0967937 -0.257154 0.356586 0.325392 0.223465 0.300551 0.484892 0.0570787 0.229282 0.330114 0.12727 0.600835 0.382267 -0.756722 -0.794756 -0.576298 -0.575179 -0.00860196 -0.823879 -0.554206 -0.444897 -0.607752 -0.405336 -0.536564
internal_count=584320 46525 537795 514435 502800 479456 34895 23259 23360 23344 11636 8744 11618 11716 11742 4992 7060 6626 4682 11630 9771 11543 11635 2892 8764 1859 1060 9741 1894 1007
shrinkage=0.2


Tree=25
num_leaves=29
num_cat=0
split_feature=1 1 1 1 1 1 1 1 4 0 0 1 0 0 0 3 0 0 0 3 4 3 3 4 1 1 0 0
split_gain=2139.91 2819.76 2312.4 2748.37 2594.27 2884.5 1160.19 1647.64 328.595 319.177 703.383 371.563 229.876 477.992 210.451 192.993 190.629 141.325 438.986 118.405 104.531 94.2327 87.0717 42.8709 46.1651 37.927 33.6 6.96471
threshold=46.500000000000007 47.500000000000007 7.5000000000000009 8.5000000000000018 9.5000000000000018 13.500000000000002 49.500000000000007 48.500000000000007 2013.5000000000002 1.5000000000000002 2.5000000000000004 5.5000000000000009 7.5000000000000009 3.5000000000000004 7.5000000000000009 1.0000000180025095e-35 4.5000000000000009 4.5000000000000009 7.5000000000000009 3.5000000000000004 2013.5000000000002 1.0000000180025095e-35 2.5000000000000004 2015.5000000000002 4.5000000000000009 5.5000000000000009 1.5000000000000002 2.5000000000000004
decision_type=2 2 2 2 2 2 2 2 2 2 2 2 2 2 2 2 2 2 2 2 2 2 2 2 2 2 2 2
left_child=2 17 9 8 20 -6 7 14 21 23 11 -11 13 -8 -3 -10 -12 27 19 -19 -5 -4 -14 24 -1 -25 -9 -2
right_child=1 6 3 4 5 -7 12 26 15 10 16 -13 22 -15 -16 -17 -18 18 -20 -21 -22 -23 -24 25 -26 -27 -28 -29
leaf_value=-0.30803819824109485 -1.1446635288627185 -0.086342146632478745 -0.86106349283708716 -1.3695495136653542 0.85253868998164539 -0.009261036145041146 1.0032905777004615 -1.0781988159111233 0.70143468254208163 0.0092147729529145298 -0.48971836731747093 1.5259883859816683 0.45607818272487322 -0.25164916084978162 0.56090341210954475 2.329189664208704 -0.23097721028335913 -0.15698001056454275 -1.4509778918819833 -0.72605478730779893 -0.88490797377311603 0.70929457423455489 1.5084009065361188 -0.84252971773764007 -0.66865751995723177 -0.61496829511722106 -0.73749813933516184 -1.5187345791357605
leaf_count=2772 2363 8175 337 2297 46710 385986 3485 1149 1346 5946 16246 2323 1534 4608 3492 8050 49071 2000 3508 1479 9325 2008 2030 2329 2082 947 10367 2355
internal_value=0 -0.225701 -0.00219403 0.0255577 0.0129296 0.0254609 -0.0829121 -0.212366 0.503059 -0.15711 -0.136256 0.138287 0.174263 0.080522 0.0522626 0.586757 -0.171064 -0.650319 -0.55793 -0.304399 -0.453241 0.166061 0.386017 -0.345373 -0.283491 -0.435781 -0.480678 -0.78605
internal_count=584320 46545 537775 456059 444318 432696 34840 23183 11741 81716 73586 8269 11657 8093 11667 9396 65317 11705 6987 3479 11622 2345 3564 8130 4854 3276 11516 4718
shrinkage=0.2


Tree=26
num_leaves=30
num_cat=0
split_feature=3 1 1 1 1 1 1 1 1 1 1 0 0 0 1 0 2 2 0 2 1 1 1 2 1 1 1 1 1
split_gain=1882.97 1685.95 5888.68 4332.44 10374.5 7933.8 2617.08 2439.97 2257.09 1075.54 1042.6 490.554 842.02 320.017 470.9 329.462 174.377 141.152 127.333 52.264 51.0978 389.184 97.9853 48.347 40.1765 35.5538 17.2095 11.2461 7.49364
threshold=1.0000000180025095e-35 39.500000000000007 41.500000000000007 37.500000000000007 36.500000000000007 34.500000000000007 38.500000000000007 46.500000000000007 47.500000000000007 44.500000000000007 40.500000000000007 1.5000000000000002 2.5000000000000004 7.5000000000000009 5.5000000000000009 8.5000000000000018 2.5000000000000004 2.5000000000000004 1.5000000000000002 2.5000000000000004 29.500000000000004 27.500000000000004 25.500000000000004 11.500000000000002 7.5000000000000009 30.500000000000004 38.500000000000007 28.500000000000004 23.500000000000004
decision_type=2 2 2 2 2 2 2 2 2 2 2 2 2 2 2 2 2 2 2 2 2 2 2 2 2 2 2 2 2
left_child=11 3 10 4 5 -2 19 9 -9 -4 17 20 23 14 -14 -15 -12 -3 -8 -5 21 22 -1 24 -13 -22 -27 -23 -25
right_child=1 2 7 6 -6 -7 18 8 -10 -11 16 12 13 15 -16 -17 -18 -19 -20 -21 25 27 -24 28 -26 26 -28 -29 -30
leaf_value=-0.78052004285536336 0.010133795505846878 -0.12483355142344195 0.05987606867734812 1.9725900119914599 -3.3364090014145265 2.4562467533695043 -0.35709290356822693 -0.91412669389327839 -0.086700737660170557 1.0390492461736187 -0.77719696376324032 0.015417445890257753 0.1185821706034723 0.24089730769751158 -0.59131171667126237 -0.41103158889195868 -1.8457436225542552 -0.67822473286006757 0.31274858221639479 4.4450627644786556 -3.153998804712614 3.372145530357058 -4.0062129795657171 -0.47865937969814071 0.75628454743784213 -1.1748016059922819 -0.83918683814148598 1.1861566591241797 0.04863782548097078
leaf_count=4148 340502 1636 29973 1649 10083 20072 1014 10053 29877 20048 1638 1069 4241 8308 37465 16770 8434 8417 9058 8402 158 170 316 324 6593 1343 2024 157 378
internal_value=0 0.00495729 -0.104351 0.0357562 0.0112122 0.0392008 0.487624 0.00502371 -0.179273 0.152205 -0.5933 -0.157271 -0.131694 -0.169178 -0.222899 -0.079698 -0.820937 -0.36475 0.126939 0.848612 -0.387898 -0.318298 -0.395998 0.167194 0.190334 -0.481272 -0.456951 0.727091 -0.0807183
internal_count=584320 500856 110076 390780 370657 360574 20123 89951 39930 50021 20125 83464 75148 66784 41706 25078 10072 10053 10072 10051 8316 4791 4464 8364 7662 3525 3367 327 702
shrinkage=0.2


Tree=27
num_leaves=32
num_cat=0
split_feature=4 0 0 0 0 0 0 0 0 0 0 0 2 2 3 3 3 2 2 2 3 2 2 3 3 2 2 2 2 2 3
split_gain=2136.11 1580.04 3871.07 3463.13 1402.37 1267.81 716.683 792.539 569.631 1210.41 620.551 710.625 529.533 392.592 384.142 253.191 247.462 164.635 128.303 115.268 88.4855 50.3266 29.0803 27.0756 26.4103 25.7421 34.0143 14.3192 12.341 10.8112 1.2454
threshold=2016.5000000000002 3.5000000000000004 1.5000000000000002 7.5000000000000009 6.5000000000000009 2.5000000000000004 8.5000000000000018 9.5000000000000018 1.5000000000000002 2.5000000000000004 7.5000000000000009 6.5000000000000009 2.5000000000000004 2.5000000000000004 5.5000000000000009 5.5000000000000009 4.5000000000000009 4.5000000000000009 7.5000000000000009 7.5000000000000009 3.5000000000000004 1.5000000000000002 11.500000000000002 5.5000000000000009 1.5000000000000002 9.5000000000000018 4.5000000000000009 11.500000000000002 11.500000000000002 10.500000000000002 1.5000000000000002
decision_type=2 2 2 2 2 2 2 2 2 2 2 2 2 2 2 2 2 2 2 2 2 2 2 2 2 2 2 2 2 2 2
left_child=1 2 15 4 14 13 16 -8 20 21 11 -11 -7 -4 -3 19 -5 -12 -6 -1 25 30 -17 28 -23 26 -2 -25 -22 -27 -10
right_child=8 3 5 6 18 12 7 -9 9 10 17 -13 -14 -15 -16 22 -18 -19 -20 -21 23 24 -24 27 -26 29 -28 -29 -30 -31 -32
leaf_value=-0.43043439895323843 -0.48615761091982251 -0.33790008957832146 0.15970386645566209 0.27868384768099336 -0.61050524023870778 -0.4691472214774649 -0.33762966119620863 0.23232919640038077 0.4682983539587966 0.23224988631975949 0.3040435035902867 -0.4477635492876843 0.30049687509676776 1.343394108478664 0.0071739198060541305 0.014351408436843372 1.0906111796324467 1.0629472509081068 -0.83896531924307072 -0.72034753970640186 -0.12950805178453137 1.4388907975985454 -0.6086491923687376 0.49732710272928105 2.6797813531919701 -1.1251113902103669 -0.22791480360558866 -0.3511914149601964 -0.55703949166344058 -0.47996551329702303 0.5938181703483224
leaf_count=23220 2215 120099 7608 33523 27191 7419 46714 46933 330 46718 11358 11722 39237 39142 20050 6143 13344 23605 19547 16858 3000 2958 530 1521 7703 559 2810 160 323 1104 676
internal_value=0 -0.0485945 0.040239 -0.0866327 -0.175814 0.157832 0.0319599 -0.0185361 0.102607 0.125921 0.0879377 0.024826 0.0411261 0.274227 -0.125749 -0.194634 0.132919 0.193328 -0.325858 -0.224668 -0.106619 0.429642 -0.0137662 -0.00537298 0.450106 -0.181873 -0.144771 0.0973321 -0.0582998 -0.291667 0.209032
internal_count=584320 467558 140157 327401 186887 93406 140514 93647 116762 105070 93403 58440 46656 46750 140149 46751 46867 34963 46738 40078 11692 11667 6673 5004 10661 6688 5025 1681 3323 1663 1006
shrinkage=0.2


Tree=28
num_leaves=25
num_cat=0
split_feature=1 1 1 1 1 1 1 1 1 1 4 1 3 3 1 3 0 3 4 4 4 3 0 0
split_gain=1679.61 20019.4 11571 18156.9 10793.7 7658.5 2777.01 4881.69 7324.25 1947.04 294.119 266.997 190.312 149.809 99.9638 74.9425 71.6409 41.1141 20.5359 17.163 15.1647 14.534 8.35717 3.1231
threshold=29.500000000000004 27.500000000000004 25.500000000000004 23.500000000000004 22.500000000000004 30.500000000000004 31.500000000000004 32.500000000000007 33.500000000000007 26.500000000000004 2013.5000000000002 24.500000000000004 3.5000000000000004 1.0000000180025095e-35 28.500000000000004 1.5000000000000002 3.5000000000000004 1.0000000180025095e-35 2015.5000000000002 2013.5000000000002 2013.5000000000002 5.5000000000000009 3.5000000000000004 3.5000000000000004
decision_type=2 2 2 2 2 2 2 2 2 2 2 2 2 2 2 2 2 2 2 2 2 2 2 2
left_child=1 2 3 4 -1 18 10 16 -9 12 15 -5 -4 -12 -3 -7 -8 20 -2 -19 -16 23 -23 -20
right_child=5 14 9 11 -6 6 7 8 -10 -11 13 -13 -14 -15 17 -17 -18 19 21 -21 -22 22 -24 -25
leaf_value=-0.033402921485286896 -2.4427326383956145 6.6674809328257512 -1.1642683353453556 2.4540313805279497 -4.103259476405313 -0.27385105535421134 -1.4841265417102492 2.5306704812900094 -0.18565168729009685 -5.8801467995964209 0.45402457571462168 5.319741508701135 -0.69117633148964053 1.4542344855366651 0.82481654710693708 0.49204848323167882 -1.7516375770202786 2.3008709838291281 -2.0414168974731242 3.7574510520995177 2.2605452091544365 -1.2848561853235836 -1.9721802019227923 -2.354194721036079
leaf_count=256854 6968 11714 6627 11791 11621 674 3516 11899 198609 11784 1333 11659 5020 7964 358 1654 8184 2025 1198 8028 1335 201 490 2814
internal_value=0 0.0296527 -0.0366405 0.0176205 -0.0560787 -0.0789668 -0.0394888 -0.0644293 -0.0294659 -0.712723 0.43687 0.861423 -0.422139 0.516552 0.920809 0.117078 -0.693065 0.852749 -0.869449 0.878674 0.695718 -0.809168 -0.64544 -0.836101
internal_count=584320 338816 315356 291925 268475 245504 233833 222208 210508 23431 11625 23450 11647 9297 23460 2328 11700 11746 11671 10053 1693 4703 691 4012
shrinkage=0.2


Tree=29
num_leaves=32
num_cat=0
split_feature=2 2 1 1 1 2 1 1 1 1 2 2 3 1 1 1 1 1 0 0 1 1 1 1 2 3 3 3 1 1 0
split_gain=1886.27 4053.06 1419.79 1798.9 2058.41 1219.36 954.437 998.461 631.329 708.883 606.595 584.977 380.04 306.19 295.12 416.609 484.792 365.071 265.662 837.583 248.514 431.228 178.152 207.57 170.099 129.206 116.277 92.4412 67.3143 51.7971 48.3121
threshold=4.5000000000000009 7.5000000000000009 5.5000000000000009 15.500000000000002 17.500000000000004 11.500000000000002 5.5000000000000009 36.500000000000007 3.5000000000000004 1.5000000000000002 5.5000000000000009 1.5000000000000002 5.5000000000000009 4.5000000000000009 5.5000000000000009 37.500000000000007 36.500000000000007 38.500000000000007 1.5000000000000002 2.5000000000000004 5.5000000000000009 12.500000000000002 5.5000000000000009 15.500000000000002 2.5000000000000004 3.5000000000000004 3.5000000000000004 3.5000000000000004 3.5000000000000004 2.5000000000000004 4.5000000000000009
decision_type=2 2 2 2 2 2 2 2 2 2 2 2 2 2 2 2 2 2 2 2 2 2 2 2 2 2 2 2 2 2 2
left_child=11 2 8 10 -5 6 13 -8 9 -2 -4 14 18 -3 27 16 -16 -17 24 -20 26 -22 28 -24 -13 -10 -7 29 -14 -1 -29
right_child=1 5 3 4 -6 20 7 -9 25 -11 -12 12 22 -15 15 17 -18 -19 19 -21 21 -23 23 -25 -26 -27 -28 30 -30 -31 -32
leaf_value=-0.023027688397699822 -0.59026390403233686 -0.27453155663259282 0.61866841387813176 -0.76178568733882068 0.63823169649511158 0.21262746849425831 0.20242357245468201 -0.25065321620706876 -0.38313358397274477 0.48870903071706384 1.8469650299120106 -0.091604896450414239 -0.099103823497921448 -0.75957383260010403 -0.62650301242811113 1.312775683008188 -2.2109672633790907 -0.16662509456222382 0.58529585243645887 -0.23944549980739396 -0.93785788338905585 -0.40680858098072864 0.85220791456151523 0.11127592248529972 -0.72087006346915317 -0.87121552912536693 -0.23043059956332215 -0.39945451144256483 -0.67120387747809296 0.30446854918936617 0.0035491042681611521
leaf_count=1133 2917 15740 9960 5839 97163 2802 121049 54747 3337 5883 19512 3858 1219 3919 30836 1004 988 11851 12177 97521 6981 37937 4020 14261 8365 2509 2144 848 834 1715 1251
internal_value=0 0.0236618 0.154897 0.187572 0.125187 -0.0550293 -0.0194001 0.00395282 -0.140413 0.0285021 0.40546 -0.0973187 -0.0646706 -0.228355 -0.190834 -0.216506 -0.277906 -0.0642328 -0.0857904 -0.0701626 -0.194616 -0.218048 0.0618039 0.0933005 -0.225741 -0.395097 0.0175597 0.0403847 -0.216884 0.158159 -0.117939
internal_count=584320 392439 147120 132474 103002 245319 195455 175796 14646 8800 29472 191881 142255 19659 49626 44679 31824 12855 121921 109698 49864 44918 20334 18281 12223 5846 4946 4947 2053 2848 2099
shrinkage=0.2


Tree=30
num_leaves=31
num_cat=0
split_feature=4 1 1 1 1 1 1 1 1 1 0 0 1 1 2 2 0 0 1 0 1 1 1 1 1 1 2 2 1 1
split_gain=1805.29 1178.3 1631.31 12271.6 10237.5 5367.77 1663.52 537.966 497.098 450.06 343.609 847.776 973.826 419.719 326.645 405.965 298.055 866.48 229.114 194.066 166.261 131.422 1112.09 701.388 392.44 132.84 51.7561 27.1994 21.3881 5.39164
threshold=2013.5000000000002 5.5000000000000009 29.500000000000004 27.500000000000004 26.500000000000004 30.500000000000004 31.500000000000004 4.5000000000000009 1.5000000000000002 2.5000000000000004 7.5000000000000009 4.5000000000000009 5.5000000000000009 37.500000000000007 11.500000000000002 4.5000000000000009 7.5000000000000009 4.5000000000000009 3.5000000000000004 4.5000000000000009 28.500000000000004 29.500000000000004 27.500000000000004 25.500000000000004 30.500000000000004 31.500000000000004 3.5000000000000004 4.5000000000000009 5.5000000000000009 28.500000000000004
decision_type=2 2 2 2 2 2 2 2 2 2 2 2 2 2 2 2 2 2 2 2 2 2 2 2 2 2 2 2 2 2
left_child=10 7 3 4 -3 27 -7 8 19 -10 11 14 18 -14 15 -1 17 -9 -13 -2 -5 22 23 -12 -23 -26 -18 -4 -16 -24
right_child=1 2 5 20 -6 6 -8 16 9 -11 21 12 13 -15 28 -17 26 -19 -20 -21 -22 24 29 -25 25 -27 -28 -29 -30 -31
leaf_value=-0.38830925383317522 -0.70497747721579074 0.2063258355177375 -1.9242680024300924 5.7200484636631499 -4.8170552908395265 1.0272901788612523 -0.054789580113337878 -0.82799324144723274 0.37984718933052763 -0.16172330638173663 -0.00030490223306323117 0.02598570018427182 -0.96111982284899544 -0.23283672832570235 -0.13644277141172731 0.070956715239029231 -0.50855826305348584 0.21938482814532742 0.60676826129351868 -0.22818635749654848 2.7710729050645551 -2.059889703580136 5.0152496913535352 -3.0635559341360001 0.73364706314250583 -0.26109814206704701 -1.1437457498291406 -1.8002003739680505 -0.82998284953098256 2.3210528427057215
leaf_count=15381 3781 196172 3086 9419 9441 9321 177702 3764 9431 18666 17451 2082 22467 9021 397 27320 722 2850 1353 5624 9377 690 706 1401 722 13297 2109 6282 3565 720
internal_value=0 0.0132975 0.0300685 0.0883193 0.0175954 -0.0364772 0.000512775 -0.136952 -0.0831064 -0.0163667 -0.125788 -0.161356 -0.279217 -0.33441 -0.0730705 -0.0474875 -0.35033 -0.233174 0.225688 -0.282092 0.861692 -0.0427523 0.00931427 -0.0549936 -0.11473 -0.0781562 -0.622419 -0.775045 -0.347773 0.860005
internal_count=584320 467747 420800 224409 205613 196391 187023 46947 37502 28097 116573 81586 34923 31488 46663 42701 9445 6614 3435 9405 18796 34987 20278 18852 14709 14019 2831 9368 3962 1426
shrinkage=0.2


Tree=31
num_leaves=32
num_cat=0
split_feature=4 1 1 1 1 1 1 0 0 0 1 0 1 1 0 0 1 1 1 2 0 0 1 1 1 0 1 1 1 0 2
split_gain=1364.31 1044.87 1047.15 2363.14 2339.82 988.577 735.163 727.275 1731.81 1723.89 893.685 785.496 508.64 628.362 469.057 458.259 389.403 472.911 328.499 226.95 170.344 496.661 157.21 155.952 150.181 143.798 104.516 835.852 323.859 70.3657 43.1334
threshold=2015.5000000000002 5.5000000000000009 15.500000000000002 17.500000000000004 18.500000000000004 14.500000000000002 13.500000000000002 3.5000000000000004 7.5000000000000009 1.5000000000000002 5.5000000000000009 6.5000000000000009 5.5000000000000009 15.500000000000002 2.5000000000000004 4.5000000000000009 3.5000000000000004 1.5000000000000002 5.5000000000000009 4.5000000000000009 7.5000000000000009 4.5000000000000009 2.5000000000000004 3.5000000000000004 16.500000000000004 7.5000000000000009 29.500000000000004 27.500000000000004 32.500000000000007 7.5000000000000009 3.5000000000000004
decision_type=2 2 2 2 2 2 2 2 2 2 2 2 2 2 2 2 2 2 2 2 2 2 2 2 2 2 2 2 2 2 2
left_child=7 16 5 24 -5 6 -3 9 10 26 15 -12 23 -14 18 -9 17 29 -11 -16 21 -18 -19 -10 -4 -7 27 -1 -28 -2 -22
right_child=1 2 3 4 -6 25 -8 8 12 14 11 -13 13 -15 19 -17 20 22 -20 -21 30 -23 -24 -25 -26 -27 28 -29 -30 -31 -32
leaf_value=-0.39373497770863608 -0.33329708860397178 0.61493005360326558 -0.97433953927811146 3.5884903432449153 0.12644873478319596 1.9481341125984983 -0.50824690784939441 -0.32672070524247165 -0.15868810698285074 -0.14866711876284741 -0.31920464227044648 -0.66628071427642654 0.54129950778067559 -0.022481835151906895 -0.23080088971663601 0.25077091505232901 -0.69942830705380676 0.50615073999406091 0.86855709275347415 0.25619629094393448 -0.39348172551215266 0.096576942220927012 -0.089737291001488029 -0.43774090740815413 -0.58024179088963457 4.6480996458421489 -1.3678214727826488 1.917827698947393 -0.32742983119446412 -0.74380897101776178 -0.91307600436577807
leaf_count=18827 3265 37464 4677 4701 149674 3232 4660 3476 6349 3524 94561 31380 21071 73689 11457 10397 3778 4698 31703 23396 689 2832 4714 4274 4721 1344 2132 1421 12679 1431 2104
internal_value=0 0.0454337 0.0677793 0.0300893 0.0597488 0.199878 0.151801 -0.0531796 -0.0830176 0.0163769 -0.155982 -0.182525 0.013758 0.0370493 0.106972 0.0847439 -0.154457 -0.0491039 0.18836 0.0246128 -0.312133 -0.223637 0.0799688 -0.193668 -0.456646 0.641392 -0.16462 -0.11757 -0.228697 -0.308346 -0.520003
internal_count=584320 233984 210473 163773 154375 46700 42124 350336 245197 105139 139814 125941 105383 94760 70080 13873 23511 14108 35227 34853 9403 6610 9412 10623 9398 4576 35059 20248 14811 4696 2793
shrinkage=0.2


Tree=32
num_leaves=32
num_cat=0
split_feature=3 3 2 2 1 1 1 1 1 2 1 4 2 2 1 1 1 2 1 1 1 2 1 2 2 1 1 1 1 2 4
split_gain=1624.35 963.234 917.456 1825.44 806.756 666.944 820.174 1031.39 892.222 447.121 381.231 390.45 286.08 285.088 244.63 231.011 227.267 224.767 223.739 174.799 145.254 139.137 88.1899 76.0817 59.3511 59.3371 58.2655 43.6182 37.3666 14.782 10.9888
threshold=5.5000000000000009 1.0000000180025095e-35 4.5000000000000009 8.5000000000000018 5.5000000000000009 5.5000000000000009 15.500000000000002 17.500000000000004 18.500000000000004 11.500000000000002 5.5000000000000009 2013.5000000000002 2.5000000000000004 1.5000000000000002 3.5000000000000004 1.5000000000000002 37.500000000000007 11.500000000000002 21.500000000000004 21.500000000000004 12.500000000000002 3.5000000000000004 2.5000000000000004 10.500000000000002 2.5000000000000004 16.500000000000004 3.5000000000000004 12.500000000000002 4.5000000000000009 11.500000000000002 2013.5000000000002
decision_type=2 2 2 2 2 2 2 2 2 2 2 2 2 2 2 2 2 2 2 2 2 2 2 2 2 2 2 2 2 2 2
left_child=1 10 13 4 -4 14 12 25 -9 -5 21 20 27 16 15 29 -3 -14 -13 -15 -12 26 -17 -23 30 -8 -1 -7 -26 -2 -16
right_child=5 2 3 9 -6 6 7 8 -10 -11 11 18 17 19 24 22 -18 -19 -20 -21 -22 23 -24 -25 28 -27 -28 -29 -30 -31 -32
leaf_value=0.19666848677299048 -0.55261638037592464 -0.44006340899570734 -0.20742261319659719 -0.079383143421727462 0.44592483872455663 -0.089503544176058381 -1.0622497477314752 4.3981321014286907 0.38302383211830321 -0.3394835404211094 -1.0342503093572617 -0.4410729351490858 1.6544955567744239 -0.21187836508927804 0.24698921205327765 0.79176576474636429 -0.033860203361629364 0.06212687556145511 -0.18727413100642992 -0.055862451571161389 -0.53867477813892184 -0.089112895343867043 -0.045617779412546612 0.26932196111279388 -0.46714200287374941 -0.52070570907180957 0.53273153978719101 0.71467027917913983 -0.72283431264323506 -0.0015703916464712365 -0.1587695923333545
leaf_count=1263 1512 26621 14075 103827 126178 1862 1654 1670 53502 35752 2322 21222 12716 42379 102 1670 9369 1412 38531 59198 12623 5019 1686 1389 1441 1728 829 774 1418 143 433
internal_value=0 -0.0333638 -0.0137707 0.019093 0.0996742 0.117119 0.146956 0.0910379 0.123949 -0.0618554 -0.13162 -0.154468 0.342036 -0.0806419 -0.149847 -0.00875602 -0.157167 0.39848 -0.118213 -0.0534938 -0.299165 0.0687882 0.141384 -0.00388433 -0.357056 -0.444586 0.292562 0.0382358 -0.414369 -0.314788 -0.0444322
internal_count=584320 500597 417399 279832 140253 83723 75318 58554 55172 139579 83198 74698 16764 137567 8405 5011 35990 14128 59753 101577 14945 8500 3356 6408 3394 3382 2092 2636 2859 1655 535
shrinkage=0.2


Tree=33
num_leaves=32
num_cat=0
split_feature=0 0 0 0 1 1 1 1 1 1 1 1 0 1 1 1 1 1 1 1 1 1 3 1 2 2 1 0 3 3 2
split_gain=1170.14 2680.58 3006.86 1224.76 825.675 1019.69 2023.55 2056.84 864.248 818.442 807.04 1568.45 628.665 553.505 692.238 432.311 327.887 3181.86 1836.91 307.686 435.153 180.851 149.256 136.769 126.682 124.484 121.043 85.0699 74.082 40.0785 39.6952
threshold=7.5000000000000009 3.5000000000000004 1.5000000000000002 6.5000000000000009 5.5000000000000009 15.500000000000002 17.500000000000004 18.500000000000004 12.500000000000002 13.500000000000002 5.5000000000000009 15.500000000000002 8.5000000000000018 5.5000000000000009 12.500000000000002 3.5000000000000004 21.500000000000004 22.500000000000004 18.500000000000004 3.5000000000000004 1.5000000000000002 3.5000000000000004 5.5000000000000009 16.500000000000004 3.5000000000000004 10.500000000000002 29.500000000000004 8.5000000000000018 3.5000000000000004 3.5000000000000004 5.5000000000000009
decision_type=2 2 2 2 2 2 2 2 2 2 2 2 2 2 2 2 2 2 2 2 2 2 2 2 2 2 2 2 2 2 2
left_child=1 2 22 16 19 8 23 -8 12 -10 15 -12 -6 21 -15 -4 18 -18 -3 20 29 -5 26 -7 28 -26 -1 -22 -21 -2 -24
right_child=4 3 10 13 5 6 7 -9 9 -11 11 -13 -14 14 -16 -17 17 -19 -20 24 27 -23 30 -25 25 -27 -28 -29 -30 -31 -32
leaf_value=-0.26249758684274554 -0.31938602919575382 -0.099482399268444516 0.11306831178191318 -0.11162611432671402 1.0202702587027623 -1.0361813528172632 3.7491198380383737 0.16379258958649745 3.6547843460247651 0.8821488516106939 1.3826668728165998 0.42092375933668225 0.04288863481169472 -1.0518923617234925 -0.45983900806153888 -0.49040393832387469 3.3601873446623216 -0.15932251911391193 -0.95952221608950206 0.11705805636541769 0.47331828359642431 0.29711021906196394 -0.24318546994752524 -0.55398370531884 -0.67332857169129889 -0.14037173726898047 -0.45987660385546864 0.042775137726332707 -0.35425218480692355 -0.70011444033963388 0.13747519889835333
leaf_count=28871 2047 62918 7086 3477 8215 3524 3452 112317 3501 6971 23325 81794 16358 8141 44371 4702 3529 98191 10468 1022 2376 2311 3472 3467 4115 1186 21198 4703 744 1496 4972
internal_value=0 -0.0394368 0.0539548 -0.10964 0.0581828 0.0811613 0.0381785 0.069757 0.231623 0.47226 0.146591 0.174425 0.128903 -0.235201 -0.26756 -0.101341 -0.0678144 -0.0310147 -0.118777 -0.146615 -0.0386733 0.057832 -0.131074 -0.484119 -0.308334 -0.385732 -0.15182 0.104195 -0.074 -0.32485 -0.00768351
internal_count=584320 408826 175420 233406 175494 157805 122760 115769 35045 10472 116907 105119 24573 58300 52512 11788 175106 101720 73386 17689 10622 5788 58513 6991 7067 5301 50069 7079 1766 3543 8444
shrinkage=0.2


Tree=34
num_leaves=32
num_cat=0
split_feature=3 2 2 2 2 2 2 2 2 2 2 2 2 2 2 0 0 4 4 0 3 4 4 0 0 0 3 0 0 0 0
split_gain=1209.94 772.549 1174.4 813.383 457.187 1027.37 650.405 367.921 412.669 255.044 456.576 214.245 202.359 195.937 156.292 152.747 186.529 134.286 123.187 98.9418 90.7395 79.0145 69.5095 58.4697 53.318 130.012 49.8899 39.6194 110.085 54.5849 21.8724
threshold=2.5000000000000004 4.5000000000000009 7.5000000000000009 6.5000000000000009 9.5000000000000018 5.5000000000000009 7.5000000000000009 11.500000000000002 10.500000000000002 10.500000000000002 11.500000000000002 1.5000000000000002 5.5000000000000009 6.5000000000000009 1.5000000000000002 7.5000000000000009 6.5000000000000009 2016.5000000000002 2016.5000000000002 8.5000000000000018 5.5000000000000009 2014.5000000000002 2014.5000000000002 7.5000000000000009 2.5000000000000004 4.5000000000000009 1.0000000180025095e-35 4.5000000000000009 7.5000000000000009 1.5000000000000002 1.5000000000000002
decision_type=2 2 2 2 2 2 2 2 2 2 2 2 2 2 2 2 2 2 2 2 2 2 2 2 2 2 2 2 2 2 2
left_child=4 11 3 12 5 14 13 8 -4 27 23 24 -3 -7 26 16 -13 -8 -16 -17 -5 -12 -9 -11 30 -26 -1 29 -29 -6 -2
right_child=1 2 7 20 9 6 17 22 -10 10 21 15 -14 -15 18 19 -18 -19 -20 -21 -22 -23 -24 -25 25 -27 -28 28 -30 -31 -32
leaf_value=-0.45431128358602335 -0.13340167060496386 0.097201935120315858 0.00084766256463240106 1.0064163408963935 -0.65170390244032894 0.18922137792877436 -0.16188770251636841 -0.31143769061138721 0.41635348916628562 -0.038351762755880259 -0.51317436199733446 -0.03995570619784701 0.54053024678014627 0.57908916683138834 -0.22899455123040743 0.44232974648277124 -0.33074897597257547 0.20598641081994062 -0.013945081292522588 0.02645182825612551 1.7727113653223456 -0.27876707942161261 -0.13027589989106333 0.28142296903828878 -0.59563632012820056 -0.16597573756596518 -0.27918333220711705 -0.69787226066945962 -0.41085072118925298 -0.32572103175939521 0.075364768997330966
leaf_count=6637 2903 28462 84181 20998 2104 20450 33719 10563 27464 14436 9317 48646 27396 21589 65593 8178 8164 8312 16559 16183 7144 12232 17780 6140 5801 17326 14090 6309 6364 6335 2945
internal_value=0 0.0316125 0.065337 0.158815 -0.06035 -0.0354631 0.046518 0.00922133 0.0350737 -0.13387 -0.0887748 -0.03694 0.0888797 0.134482 -0.102485 -0.0105441 -0.0389859 -0.0413928 -0.0828301 0.055652 0.297492 -0.190512 -0.0924965 0.0176346 -0.110771 -0.132378 -0.180218 -0.223676 -0.259539 -0.169381 -0.0247656
internal_count=584320 334134 223988 84000 250186 186949 84070 139988 111645 63237 42125 110146 55858 42039 102879 81171 56810 42031 82152 24361 28142 21549 28343 20576 28975 23127 20727 21112 12673 8439 5848
shrinkage=0.2


Tree=35
num_leaves=29
num_cat=0
split_feature=4 1 1 1 1 1 1 1 1 1 3 1 1 1 0 0 0 3 1 1 1 1 1 1 1 3 3 1
split_gain=1068.48 651.768 11609.9 8698.58 11629.4 8303.14 8328.03 4331.23 1536.32 337.9 288.17 363.949 337.988 369.755 218.35 570.18 250.078 137.247 126.51 127.689 95.1373 69.0722 28.6008 90.6457 71.2883 20.923 17.4087 12.4368
threshold=2016.5000000000002 23.500000000000004 25.500000000000004 27.500000000000004 29.500000000000004 22.500000000000004 21.500000000000004 18.500000000000004 26.500000000000004 24.500000000000004 4.5000000000000009 5.5000000000000009 15.500000000000002 17.500000000000004 1.5000000000000002 2.5000000000000004 7.5000000000000009 1.0000000180025095e-35 3.5000000000000004 1.5000000000000002 14.500000000000002 1.5000000000000002 39.500000000000007 41.500000000000007 37.500000000000007 1.0000000180025095e-35 1.0000000180025095e-35 4.5000000000000009
decision_type=2 2 2 2 2 2 2 2 2 2 2 2 2 2 2 2 2 2 2 2 2 2 2 2 2 2 2 2
left_child=1 5 9 8 -5 6 7 -1 -4 17 14 18 20 -14 22 21 -17 -3 19 -12 -13 -16 24 -24 -2 -8 -11 -20
right_child=10 2 3 4 -6 -7 25 -9 -10 26 11 12 13 -15 15 16 -18 -19 27 -21 -22 -23 23 -25 -26 -27 -28 -29
leaf_value=-0.022416111094656799 -0.26892318112190594 0.74448881776160369 -0.85208250835110211 2.7845348511043113 -0.16904644206109509 -3.3360913099618843 2.3864733772463356 -0.87778304044531275 -3.9297267467412724 2.2358695699153901 -0.51415637173026851 1.2256489730210149 -0.68901090259195863 0.65121096860241612 -0.49455566904972276 -0.034211831902976546 0.35865990029665373 1.9556536464698895 -0.40092852921678529 0.37949930328836107 3.9257621575336801 1.2661797306423042 -1.2197479893913261 -0.18944795305079509 1.0736715265682109 4.245616574763412 4.2883585190346256 -0.76450207804365822
leaf_count=168115 6208 1342 9363 18828 196440 9269 1336 27894 9328 1323 658 6050 1386 22062 180 41730 25026 8042 656 1352 680 8138 332 1516 316 8081 7970 699
internal_value=0 -0.0282066 0.00621006 -0.0543503 0.00245691 -0.0687193 -0.0269237 -0.0710768 -0.708673 0.764879 0.0786541 0.156976 0.191807 0.134873 0.0471294 0.0642395 0.0334173 0.629481 -0.154368 0.00342892 0.389562 0.311131 -0.105899 -0.216593 -0.0739859 0.891502 0.901027 -0.390223
internal_count=584320 467331 252636 233959 215268 214695 205426 196009 18691 18677 116989 33543 30178 23448 83446 75074 66756 9384 3365 2010 6730 8318 8372 1848 6524 9417 9293 1355
shrinkage=0.2


Tree=36
num_leaves=31
num_cat=0
split_feature=4 3 0 0 0 0 0 0 2 3 2 0 0 2 2 2 2 2 2 2 2 0 2 2 4 0 2 0 2 2
split_gain=892.302 732.203 557.855 1643.15 1328.29 715.87 667.242 551.278 244.944 241.033 228.676 155.664 351.661 153.891 152.085 123.156 99.5278 94.9424 75.4404 70.3724 54.5638 51.3099 16.4487 16.5808 14.5383 12.6979 11.127 10.9658 9.30095 3.57324
threshold=2013.5000000000002 5.5000000000000009 3.5000000000000004 1.5000000000000002 7.5000000000000009 6.5000000000000009 2.5000000000000004 8.5000000000000018 3.5000000000000004 1.0000000180025095e-35 8.5000000000000018 4.5000000000000009 7.5000000000000009 1.5000000000000002 11.500000000000002 5.5000000000000009 2.5000000000000004 5.5000000000000009 11.500000000000002 2.5000000000000004 1.5000000000000002 4.5000000000000009 8.5000000000000018 6.5000000000000009 2014.5000000000002 3.5000000000000004 11.500000000000002 2.5000000000000004 5.5000000000000009 10.500000000000002
decision_type=2 2 2 2 2 2 2 2 2 2 2 2 2 2 2 2 2 2 2 2 2 2 2 2 2 2 2 2 2 2
left_child=9 2 3 19 5 -4 -5 -6 20 21 15 13 16 27 -15 -10 -13 -14 -12 -2 24 26 23 -23 -3 -22 28 -11 -1 -24
right_child=1 8 4 6 7 -7 -8 -9 10 11 18 12 17 14 -16 -17 -18 -19 -20 -21 25 22 29 -25 -26 -27 -28 -29 -30 -31
leaf_value=-0.54435948528867295 -0.034287429413684838 -0.34074999139414786 -0.11278654546133211 0.83125965190892048 0.47406408581838377 -0.39808078904542443 0.12276827816953571 0.0048740361425700486 0.42929416139462973 -0.28267417658227018 0.33798731691826733 -0.068964668250791311 -0.19751033082310984 0.054710161374255509 -0.40092149442347708 1.1197403823823542 -0.38455406652013124 0.068363515524439936 -0.090344816366484088 -0.32059170218579142 0.31159918435681822 -0.2887818135831367 -0.44902477223719189 -0.073367054557904154 -0.097667973173163961 0.047672925386059717 -0.81352346017412036 -0.47444259459055138 -0.46457658571184557 -0.28652726102308751
leaf_count=2680 6353 1298 120161 40095 40290 40111 39983 79924 11231 1725 16649 4840 12486 33076 3344 17099 25295 17625 5429 33619 3242 4747 1715 1723 4570 7546 654 1717 3370 1723
internal_value=0 0.0106007 -0.00558473 0.0514515 -0.030008 -0.0896141 0.134126 0.0494348 0.107309 -0.0871371 0.142051 -0.0685729 -0.100664 -0.01999 -0.000793517 0.201564 -0.177049 -0.0241052 0.0655272 -0.114094 0.00197505 -0.198791 -0.152246 -0.121259 -0.0754396 0.04438 -0.267022 -0.222036 -0.251927 -0.209507
internal_count=584320 467600 400536 120050 280486 160272 80078 120214 67064 116720 50408 100108 60246 39862 36420 28330 30135 30111 22078 39972 16656 16612 9908 6470 5868 10788 6704 3442 6050 3438
shrinkage=0.2


Tree=37
num_leaves=29
num_cat=0
split_feature=2 2 2 1 1 1 1 1 1 1 1 1 1 1 1 1 1 1 1 1 1 1 1 0 0 0 2 2
split_gain=686.49 1408.68 925.127 495.778 5035.43 4174.38 4144.2 3897.13 473.186 643.79 435.364 2905.63 2122.64 1651.99 1186.76 390.877 796.883 500.195 259.918 503.862 185.999 161.243 104.877 45.6369 44.0143 140.066 5.60342 1.085
threshold=4.5000000000000009 7.5000000000000009 6.5000000000000009 23.500000000000004 25.500000000000004 22.500000000000004 27.500000000000004 21.500000000000004 7.5000000000000009 36.500000000000007 37.500000000000007 36.500000000000007 35.500000000000007 38.500000000000007 29.500000000000004 41.500000000000007 43.500000000000007 40.500000000000007 5.5000000000000009 15.500000000000002 3.5000000000000004 24.500000000000004 2.5000000000000004 7.5000000000000009 7.5000000000000009 4.5000000000000009 1.5000000000000002 1.5000000000000002
decision_type=2 2 2 2 2 2 2 2 2 2 2 2 2 2 2 2 2 2 2 2 2 2 2 2 2 2 2 2
left_child=10 2 8 5 21 7 -6 -3 22 -10 11 12 14 24 -1 17 -17 -15 20 -20 -4 -5 -2 -14 25 -12 -26 -13
right_child=1 3 18 4 6 -7 -8 -9 9 -11 13 27 23 15 -16 16 -18 -19 19 -21 -22 -23 -24 -25 26 -27 -28 -29
leaf_value=-0.086293117047596735 0.0064762286529756359 -0.16460232893940657 0.28389622105472229 1.5438854390770829 -2.0544193197831904 -2.8878942903784157 0.024381639678421864 3.5800448583066875 0.50349772637985102 -0.16833379220273487 2.4926970384005944 -1.5787849793793001 1.4891462059642642 -0.06355192271075083 -0.79747653576561683 0.50814089194227141 -0.099479781139562115 -0.83465467492004786 1.5053573128952822 0.66972951794386693 -0.33441171090252769 3.5034365392516551 -0.30757782613971546 2.7922568676770547 1.9114817517534448 0.66398332065286425 3.2570726735310602 -2.5369465894793919
leaf_count=111084 3916 103128 3023 4962 9751 4874 112700 4911 56700 27282 1522 1019 2649 7750 23075 7581 26787 3855 9784 35039 2010 4894 9755 1153 302 1173 843 2798
internal_value=0 0.0161227 0.0933477 -0.0303189 0.0112002 -0.0789959 -0.0441301 -0.0381139 0.0367198 0.0648319 -0.0568906 -0.0851518 -0.0613052 0.0234845 -0.0822133 -0.0291 0.0244073 -0.187794 0.204194 0.228392 -0.0107035 0.698746 -0.135725 0.675148 0.653379 0.578181 0.825736 -0.945537
internal_count=584320 392729 147509 245220 132307 112913 122451 108039 97653 83982 191591 141778 137961 49813 134159 45973 34368 11605 49856 44823 5033 9856 13671 3802 3840 2695 1145 3817
shrinkage=0.2


Tree=38
num_leaves=29
num_cat=0
split_feature=4 1 1 1 1 1 1 0 1 1 1 1 1 1 1 1 2 2 2 2 2 2 0 2 2 2 0 0
split_gain=713.657 583.082 1485.82 1667.86 1769.5 725.428 1126.6 371.573 360.376 4117.2 1945.06 3829.29 1854.6 1820.15 1855.47 277.582 172.126 121.868 101.801 88.286 76.885 91.6141 36.4378 30.9343 28.6082 8.20399 5.71974 3.51852
threshold=2014.5000000000002 49.500000000000007 46.500000000000007 44.500000000000007 43.500000000000007 47.500000000000007 48.500000000000007 7.5000000000000009 34.500000000000007 33.500000000000007 36.500000000000007 37.500000000000007 38.500000000000007 32.500000000000007 31.500000000000004 35.500000000000007 3.5000000000000004 1.5000000000000002 3.5000000000000004 2.5000000000000004 4.5000000000000009 8.5000000000000018 7.5000000000000009 2.5000000000000004 11.500000000000002 2.5000000000000004 1.5000000000000002 4.5000000000000009
